{"learner":{"attributes":{},"feature_names":["Ascites","PS","ChildPugh_class","Sex","HBV","HCV","Tumor_number","Tumor_distribution","Lymphonodules","EHS","MVI","Cirrhosis","Liver_transplantation","Surgical_resection","Radiofrequency","TACE","Target_therapy","Immunotherapy","HAIC","Radiotherapy","Best_support_care","DM","HTN","ESRD","CKD","S_T","R_T","Age","BMI","Maximal_tumor_size","Total_bilirubin","GPT","AFP","INR","Hemoglobin","Albumin","Creatine","Platelet_count","ChildPugh_score"],"feature_types":["int","int","int","int","int","int","int","int","int","int","int","int","int","int","int","int","int","int","int","int","int","int","int","int","int","int","int","float","float","float","float","float","float","float","float","float","float","float","int"],"gradient_booster":{"model":{"gbtree_model_param":{"num_parallel_tree":"1","num_trees":"500"},"iteration_indptr":[0,1,2,3,4,5,6,7,8,9,10,11,12,13,14,15,16,17,18,19,20,21,22,23,24,25,26,27,28,29,30,31,32,33,34,35,36,37,38,39,40,41,42,43,44,45,46,47,48,49,50,51,52,53,54,55,56,57,58,59,60,61,62,63,64,65,66,67,68,69,70,71,72,73,74,75,76,77,78,79,80,81,82,83,84,85,86,87,88,89,90,91,92,93,94,95,96,97,98,99,100,101,102,103,104,105,106,107,108,109,110,111,112,113,114,115,116,117,118,119,120,121,122,123,124,125,126,127,128,129,130,131,132,133,134,135,136,137,138,139,140,141,142,143,144,145,146,147,148,149,150,151,152,153,154,155,156,157,158,159,160,161,162,163,164,165,166,167,168,169,170,171,172,173,174,175,176,177,178,179,180,181,182,183,184,185,186,187,188,189,190,191,192,193,194,195,196,197,198,199,200,201,202,203,204,205,206,207,208,209,210,211,212,213,214,215,216,217,218,219,220,221,222,223,224,225,226,227,228,229,230,231,232,233,234,235,236,237,238,239,240,241,242,243,244,245,246,247,248,249,250,251,252,253,254,255,256,257,258,259,260,261,262,263,264,265,266,267,268,269,270,271,272,273,274,275,276,277,278,279,280,281,282,283,284,285,286,287,288,289,290,291,292,293,294,295,296,297,298,299,300,301,302,303,304,305,306,307,308,309,310,311,312,313,314,315,316,317,318,319,320,321,322,323,324,325,326,327,328,329,330,331,332,333,334,335,336,337,338,339,340,341,342,343,344,345,346,347,348,349,350,351,352,353,354,355,356,357,358,359,360,361,362,363,364,365,366,367,368,369,370,371,372,373,374,375,376,377,378,379,380,381,382,383,384,385,386,387,388,389,390,391,392,393,394,395,396,397,398,399,400,401,402,403,404,405,406,407,408,409,410,411,412,413,414,415,416,417,418,419,420,421,422,423,424,425,426,427,428,429,430,431,432,433,434,435,436,437,438,439,440,441,442,443,444,445,446,447,448,449,450,451,452,453,454,455,456,457,458,459,460,461,462,463,464,465,466,467,468,469,470,471,472,473,474,475,476,477,478,479,480,481,482,483,484,485,486,487,488,489,490,491,492,493,494,495,496,497,498,499,500],"tree_info":[0,0,0,0,0,0,0,0,0,0,0,0,0,0,0,0,0,0,0,0,0,0,0,0,0,0,0,0,0,0,0,0,0,0,0,0,0,0,0,0,0,0,0,0,0,0,0,0,0,0,0,0,0,0,0,0,0,0,0,0,0,0,0,0,0,0,0,0,0,0,0,0,0,0,0,0,0,0,0,0,0,0,0,0,0,0,0,0,0,0,0,0,0,0,0,0,0,0,0,0,0,0,0,0,0,0,0,0,0,0,0,0,0,0,0,0,0,0,0,0,0,0,0,0,0,0,0,0,0,0,0,0,0,0,0,0,0,0,0,0,0,0,0,0,0,0,0,0,0,0,0,0,0,0,0,0,0,0,0,0,0,0,0,0,0,0,0,0,0,0,0,0,0,0,0,0,0,0,0,0,0,0,0,0,0,0,0,0,0,0,0,0,0,0,0,0,0,0,0,0,0,0,0,0,0,0,0,0,0,0,0,0,0,0,0,0,0,0,0,0,0,0,0,0,0,0,0,0,0,0,0,0,0,0,0,0,0,0,0,0,0,0,0,0,0,0,0,0,0,0,0,0,0,0,0,0,0,0,0,0,0,0,0,0,0,0,0,0,0,0,0,0,0,0,0,0,0,0,0,0,0,0,0,0,0,0,0,0,0,0,0,0,0,0,0,0,0,0,0,0,0,0,0,0,0,0,0,0,0,0,0,0,0,0,0,0,0,0,0,0,0,0,0,0,0,0,0,0,0,0,0,0,0,0,0,0,0,0,0,0,0,0,0,0,0,0,0,0,0,0,0,0,0,0,0,0,0,0,0,0,0,0,0,0,0,0,0,0,0,0,0,0,0,0,0,0,0,0,0,0,0,0,0,0,0,0,0,0,0,0,0,0,0,0,0,0,0,0,0,0,0,0,0,0,0,0,0,0,0,0,0,0,0,0,0,0,0,0,0,0,0,0,0,0,0,0,0,0,0,0,0,0,0,0,0,0,0,0,0,0,0,0,0,0,0,0,0,0,0,0,0,0,0,0,0,0,0,0,0,0,0,0,0,0,0,0,0,0,0,0,0,0,0,0,0,0,0,0,0,0,0,0,0,0,0,0,0,0,0,0,0,0,0,0,0,0,0,0,0,0],"trees":[{"base_weights":[3.5400937E0,4.105398E0,2.7441306E0,4.2613134E0,3.316192E0,3.2669759E0,2.260957E0,4.191113E0,2.488743E-1,3.6327248E0,2.7859507E0,3.5529492E0,2.2995014E0,2.6082168E0,1.818348E0,4.2610064E0,1.8749459E-1,3.7166047E0,1.2126129E-1,3.0742419E0,1.0612964E-1,3.73058E0,2.8302283E0,2.7694309E0,1.5322071E0,2.459604E0,3.3601816E0,2.06216E0,1.5098474E0,2.1830308E-1,2.0141654E-1,1.9106543E-1,1.468277E-1,1.6472302E-1,1.1911523E-1,4.022851E0,3.477756E0,1.4971495E-1,1.0777383E0,3.0475934E0,9.2070274E-2,9.045487E-2,5.745418E-2,2.6276484E0,2.0368583E0,1.7156462E-1,5.2281786E-2,2.321333E0,7.687058E-2,8.327804E-2,5.6637134E-2,2.0238255E-1,7.396069E-2,1.768704E-1,1.2490126E-1,1.9421484E-3,7.4254945E-2,1.5996693E-1,8.9287244E-2,2.657918E0,4.625913E-2,1.1918185E-1,8.462394E-2,1.487734E-1,1.04266346E-1,8.419397E-2,1.354313E-1],"categories":[],"categories_nodes":[],"categories_segments":[],"categories_sizes":[],"default_left":[0,0,0,0,0,0,0,0,0,0,0,0,0,0,0,0,0,0,0,0,0,0,0,0,0,0,0,0,0,0,0,0,0,0,0,0,0,0,0,0,0,0,0,0,0,0,0,0,0,0,0,0,0,0,0,0,0,0,0,0,0,0,0,0,0,0,0],"id":0,"left_children":[1,3,5,7,9,11,13,15,-1,17,19,21,23,25,27,29,-1,31,-1,33,-1,35,37,39,41,43,45,47,49,-1,-1,-1,-1,-1,-1,51,53,-1,55,57,-1,-1,-1,59,61,-1,-1,63,-1,-1,-1,-1,-1,-1,-1,-1,-1,-1,-1,65,-1,-1,-1,-1,-1,-1,-1],"loss_changes":[3.6758984E3,5.560547E2,8.4530664E2,1.5064844E2,1.082168E2,4.315957E2,2.6094434E2,7.3046875E1,0E0,2.6012695E1,4.106714E1,1.3427051E2,1.24471924E2,8.897754E1,4.992749E1,3.3347656E1,0E0,8.266602E0,0E0,1.0730713E1,0E0,3.879785E1,6.373755E1,4.398181E1,8.783295E0,4.4331543E1,1.4322754E1,4.8335083E1,1.455658E1,0E0,0E0,0E0,0E0,0E0,0E0,1.0988281E1,8.761719E0,0E0,9.261152E0,1.7141357E1,0E0,0E0,0E0,2.2044922E1,1.7666504E1,0E0,0E0,2.681018E1,0E0,0E0,0E0,0E0,0E0,0E0,0E0,0E0,0E0,0E0,0E0,1.5169922E1,0E0,0E0,0E0,0E0,0E0,0E0,0E0],"parents":[2147483647,0,0,1,1,2,2,3,3,4,4,5,5,6,6,7,7,9,9,10,10,11,11,12,12,13,13,14,14,15,15,17,17,19,19,21,21,22,22,23,23,24,24,25,25,26,26,27,27,28,28,35,35,36,36,38,38,39,39,43,43,44,44,47,47,59,59],"right_children":[2,4,6,8,10,12,14,16,-1,18,20,22,24,26,28,30,-1,32,-1,34,-1,36,38,40,42,44,46,48,50,-1,-1,-1,-1,-1,-1,52,54,-1,56,58,-1,-1,-1,60,62,-1,-1,64,-1,-1,-1,-1,-1,-1,-1,-1,-1,-1,-1,66,-1,-1,-1,-1,-1,-1,-1],"split_conditions":[5.1E0,1E0,1E0,1E0,1E0,1E0,1.1043773E0,1.89E0,2.488743E-1,1E0,1.69E2,1E0,1.19E0,1E0,1E0,1E0,1.8749459E-1,1.3026486E3,1.2126129E-1,1E0,1.0612964E-1,1E0,2E0,1E0,1E0,1E0,2.1E0,1E0,3.91E0,2.1830308E-1,2.0141654E-1,1.9106543E-1,1.468277E-1,1.6472302E-1,1.1911523E-1,1E0,1E0,1.4971495E-1,5E1,7.7342104E3,9.2070274E-2,9.045487E-2,5.745418E-2,1.07257E5,9.9E0,1.7156462E-1,5.2281786E-2,7.7E0,7.687058E-2,8.327804E-2,5.6637134E-2,2.0238255E-1,7.396069E-2,1.768704E-1,1.2490126E-1,1.9421484E-3,7.4254945E-2,1.5996693E-1,8.9287244E-2,2.5E0,4.625913E-2,1.1918185E-1,8.462394E-2,1.487734E-1,1.04266346E-1,8.419397E-2,1.354313E-1],"split_indices":[29,1,1,12,2,20,33,30,0,8,32,10,33,13,0,6,0,32,0,20,0,6,0,2,24,20,36,20,30,0,0,0,0,0,0,8,16,0,27,32,0,0,0,32,29,0,0,29,0,0,0,0,0,0,0,0,0,0,0,35,0,0,0,0,0,0,0],"split_type":[0,0,0,0,0,0,0,0,0,0,0,0,0,0,0,0,0,0,0,0,0,0,0,0,0,0,0,0,0,0,0,0,0,0,0,0,0,0,0,0,0,0,0,0,0,0,0,0,0,0,0,0,0,0,0,0,0,0,0,0,0,0,0,0,0,0,0],"sum_hessian":[8.232658E3,4.8082188E3,3.4244395E3,4.0066074E3,8.0161127E2,1.6381716E3,1.7862677E3,3.6626838E3,3.4392368E2,4.9345184E2,3.0815942E2,1.2595007E3,3.7867096E2,9.941992E2,7.920685E2,3.1449187E3,5.1776514E2,4.5674002E2,3.6711826E1,2.086885E2,9.947091E1,1.0032207E3,2.5628E2,2.3079716E2,1.478738E2,8.383797E2,1.5581955E2,4.342583E2,3.578102E2,2.1392146E3,1.0057041E3,3.9468332E2,6.2056683E1,1.5150296E2,5.718554E1,4.4964313E2,5.535776E2,2.3252307E2,2.3756939E1,1.7322882E2,5.7568344E1,8.0001335E1,6.787246E1,5.9075397E2,2.4762573E2,1.4981955E2,6E0,2.8482855E2,1.4942973E2,2.4652882E2,1.11281364E2,4.4374112E2,5.902004E0,5.1592303E2,3.7654495E1,8E0,1.5756939E1,1.5118459E2,2.204423E1,5.7875397E2,1.2E1,1.16035286E2,1.3159045E2,6.8239006E1,2.1658954E2,3.3E1,5.4575397E2],"tree_param":{"num_deleted":"0","num_feature":"39","num_nodes":"67","size_leaf_vector":"1"}},{"base_weights":[3.3714836E0,3.9200163E0,2.5929546E0,4.0729933E0,3.1113312E0,3.1094782E0,2.110657E0,4.004847E0,2.3948471E-1,3.4537306E0,2.5607555E0,3.3813076E0,2.162857E0,2.4427435E0,1.7110293E0,4.05555E0,3.467144E0,1.7918314E-1,1.2070093E-1,2.833468E0,1.9819552E0,3.5651014E0,2.6637745E0,2.5941393E0,1.484821E0,2.6468527E0,1.8691123E0,1.8956249E0,6.619825E-2,2.0790906E-1,3.8326538E0,1.8028283E-1,2.5926332E0,1.5335207E-1,2.2365484E0,1.1040268E-1,6.0870644E-2,3.6756043E0,1.1877598E-1,6.4272694E-2,1.4161362E-1,2.8468337E0,1.7231994E0,8.689551E-2,5.471464E-2,2.8570547E0,2.1801157E0,1.3039216E-1,1.6967791E0,2.2233276E0,1.613653E0,1.9308418E-1,1.3179155E-1,2.4815522E-2,1.3818838E-1,1.282366E-1,6.101513E-2,1.9590998E-1,1.7158306E-1,3.0067573E0,7.082101E-2,9.824765E-2,2.018705E-2,2.694626E0,1.6390869E-1,1.1057822E-1,1.987133E-2,8.978369E-2,4.8150375E-2,1.1620718E-1,6.075893E-2,8.610979E-2,5.429412E-2,1.609581E-1,9.5359884E-2,1.3615158E-1,4.3203954E-2],"categories":[],"categories_nodes":[],"categories_segments":[],"categories_sizes":[],"default_left":[0,0,0,0,0,0,0,0,0,0,0,0,0,0,0,0,0,0,0,0,0,0,0,0,0,0,0,0,0,0,0,0,0,0,0,0,0,0,0,0,0,0,0,0,0,0,0,0,0,0,0,0,0,0,0,0,0,0,0,0,0,0,0,0,0,0,0,0,0,0,0,0,0,0,0,0,0],"id":1,"left_children":[1,3,5,7,9,11,13,15,-1,17,19,21,23,25,27,29,31,-1,-1,33,35,37,39,41,43,45,47,49,-1,-1,51,-1,53,-1,55,-1,-1,57,-1,-1,-1,59,61,-1,-1,63,65,-1,67,69,71,-1,-1,-1,-1,-1,-1,-1,-1,73,-1,-1,-1,75,-1,-1,-1,-1,-1,-1,-1,-1,-1,-1,-1,-1,-1],"loss_changes":[3.5410078E3,5.732344E2,8.436035E2,1.5358594E2,1.24933105E2,4.0839355E2,2.259043E2,6.704297E1,0E0,4.1446777E1,3.3071045E1,1.4484375E2,9.873462E1,9.976074E1,5.0592773E1,3.857422E1,1.6298096E1,0E0,0E0,9.654907E0,9.779053E0,1.1051172E2,5.1766968E1,3.566992E1,8.438263E0,5.246875E1,2.045514E1,3.9912964E1,0E0,0E0,1.1696289E1,0E0,1.3585999E1,0E0,1.211377E1,0E0,0E0,2.0706055E1,0E0,0E0,0E0,2.6478516E1,1.4259293E1,0E0,0E0,9.450928E0,8.603638E0,0E0,9.811829E0,1.601416E1,1.093335E1,0E0,0E0,0E0,0E0,0E0,0E0,0E0,0E0,1.822998E1,0E0,0E0,0E0,1.0533447E1,0E0,0E0,0E0,0E0,0E0,0E0,0E0,0E0,0E0,0E0,0E0,0E0,0E0],"parents":[2147483647,0,0,1,1,2,2,3,3,4,4,5,5,6,6,7,7,9,9,10,10,11,11,12,12,13,13,14,14,15,15,16,16,19,19,20,20,21,21,22,22,23,23,24,24,25,25,26,26,27,27,30,30,32,32,34,34,37,37,41,41,42,42,45,45,46,46,48,48,49,49,50,50,59,59,63,63],"right_children":[2,4,6,8,10,12,14,16,-1,18,20,22,24,26,28,30,32,-1,-1,34,36,38,40,42,44,46,48,50,-1,-1,52,-1,54,-1,56,-1,-1,58,-1,-1,-1,60,62,-1,-1,64,66,-1,68,70,72,-1,-1,-1,-1,-1,-1,-1,-1,74,-1,-1,-1,76,-1,-1,-1,-1,-1,-1,-1,-1,-1,-1,-1,-1,-1],"split_conditions":[5.1E0,1E0,1E0,1E0,1E0,1E0,1.1043773E0,2.36E0,2.3948471E-1,1E0,1.4111612E2,1E0,1.19E0,1E0,9E0,1E0,1E0,1.7918314E-1,1.2070093E-1,1E0,1E0,1E0,2.47E0,1E0,1E0,1E0,1E0,9.9E0,6.619825E-2,2.0790906E-1,1E0,1.8028283E-1,1.9994856E0,1.5335207E-1,8.9E0,1.1040268E-1,6.0870644E-2,1E0,1.1877598E-1,6.4272694E-2,1.4161362E-1,7.7342104E3,1.95E0,8.689551E-2,5.471464E-2,1E0,3.85E2,1.3039216E-1,1.51E1,1.6428514E4,1.3046528E4,1.9308418E-1,1.3179155E-1,2.4815522E-2,1.3818838E-1,1.282366E-1,6.101513E-2,1.9590998E-1,1.7158306E-1,1.35E0,7.082101E-2,9.824765E-2,2.018705E-2,1.07257E5,1.6390869E-1,1.1057822E-1,1.987133E-2,8.978369E-2,4.8150375E-2,1.1620718E-1,6.075893E-2,8.610979E-2,5.429412E-2,1.609581E-1,9.5359884E-2,1.3615158E-1,4.3203954E-2],"split_indices":[29,1,1,12,2,20,33,30,0,9,32,10,33,20,38,6,20,0,0,20,9,9,35,9,9,9,6,29,0,0,10,0,35,0,30,0,0,6,0,0,0,32,30,0,0,13,31,0,29,32,32,0,0,0,0,0,0,0,0,36,0,0,0,32,0,0,0,0,0,0,0,0,0,0,0,0,0],"split_type":[0,0,0,0,0,0,0,0,0,0,0,0,0,0,0,0,0,0,0,0,0,0,0,0,0,0,0,0,0,0,0,0,0,0,0,0,0,0,0,0,0,0,0,0,0,0,0,0,0,0,0,0,0,0,0,0,0,0,0,0,0,0,0,0,0,0,0,0,0,0,0,0,0,0,0,0,0],"sum_hessian":[8.352665E3,4.894655E3,3.45801E3,4.108206E3,7.8644867E2,1.6634971E3,1.7945131E3,3.7648093E3,3.433968E2,4.7727353E2,3.0917517E2,1.2875632E3,3.7593384E2,9.731267E2,8.2138635E2,3.4267388E3,3.3807068E2,4.1904968E2,5.8223827E1,2.036861E2,1.0548907E2,1.017582E3,2.6998123E2,2.2542175E2,1.505121E2,7.111235E2,2.6200323E2,5.49124E2,2.7226227E2,2.3191199E3,1.1076189E3,2.8546643E2,5.2604256E1,1.392474E2,6.443869E1,7.748907E1,2.8E1,9.264973E2,9.1084656E1,3.1935972E1,2.3804524E2,1.7031966E2,5.5102093E1,8.558573E1,6.492638E1,4.8176724E2,2.2935626E2,4.3115314E1,2.1888792E2,2.4595879E2,3.0316525E2,1.0762255E3,3.1393478E1,5E0,4.7604256E1,4.5661434E1,1.8777256E1,4.473732E2,4.791241E2,1.5058119E2,1.9738453E1,4.5102093E1,1E1,3.6006107E2,1.2170617E2,2.2435626E2,5E0,1.8913936E2,2.974857E1,2.2032355E2,2.5635235E1,2.4612535E2,5.7039913E1,1.22208984E2,2.837222E1,3.5306107E2,7E0],"tree_param":{"num_deleted":"0","num_feature":"39","num_nodes":"77","size_leaf_vector":"1"}},{"base_weights":[3.2204015E0,3.6658683E0,2.3486755E0,3.8451257E0,2.8826528E0,2.7143595E0,1.7390192E0,3.7806501E0,2.2711109E-1,3.2159538E0,2.282978E0,2.4570885E0,3.48462E0,1.9629186E0,1.2760702E0,3.817322E0,2.737373E0,3.3672523E0,2.1885421E0,1.4245574E-1,1.9529866E0,2.669602E0,1.9651749E0,3.5451035E0,6.985893E-2,2.229273E0,7.421612E-2,8.602014E-2,5.881352E-2,1.9709153E-1,3.6171072E0,3.8549345E-2,1.4468482E-1,1.7142917E-1,1.2249359E-1,1.1358064E-1,2.0193344E-2,2.1616244E0,6.8164855E-2,3.0191464E0,2.3897727E0,2.0133846E0,3.9055627E-2,1.7884181E-1,5.9027012E-2,2.6093154E0,1.8317035E0,3.7648566E0,3.3830311E0,1.1032148E-1,1.5317614E-2,3.1167545E0,1.0013695E-1,6.831031E-2,2.4831645E0,1.07613705E-1,8.301522E-2,1.3819084E-1,9.0199314E-2,2.4589008E-2,1.8841147E0,1.8894878E-1,7.9858564E-2,1.6997412E-1,5.7744306E-2,3.3372352E0,1.3081138E-1,1.1163604E-1,1.385955E-1,9.829454E-2,5.0912578E-2,1.6942155E-1,5.641007E-2],"categories":[],"categories_nodes":[],"categories_segments":[],"categories_sizes":[],"default_left":[0,0,0,0,0,0,0,0,0,0,0,0,0,0,0,0,0,0,0,0,0,0,0,0,0,0,0,0,0,0,0,0,0,0,0,0,0,0,0,0,0,0,0,0,0,0,0,0,0,0,0,0,0,0,0,0,0,0,0,0,0,0,0,0,0,0,0,0,0,0,0,0,0],"id":2,"left_children":[1,3,5,7,9,11,13,15,-1,17,19,21,23,25,27,29,31,33,35,-1,37,39,41,43,-1,45,-1,-1,-1,-1,47,-1,-1,-1,-1,-1,-1,49,-1,51,53,55,-1,-1,-1,57,59,61,63,-1,-1,65,-1,-1,67,-1,-1,-1,-1,-1,69,-1,-1,-1,-1,71,-1,-1,-1,-1,-1,-1,-1],"loss_changes":[3.1913828E3,7.396719E2,6.1166895E2,1.5723438E2,1.8540234E2,3.2358984E2,1.0148193E2,1.2880469E2,0E0,8.1546875E1,5.420581E1,1.2276758E2,3.9723633E1,7.996753E1,8.67688E0,6.213672E1,3.6963623E1,9.195801E0,8.930054E0,0E0,2.068097E1,6.957617E1,1.729004E1,1.8183105E1,0E0,5.39563E1,0E0,0E0,0E0,0E0,2.0570312E1,0E0,0E0,0E0,0E0,0E0,0E0,1.0769165E1,0E0,2.1808105E1,3.896704E1,8.113892E0,0E0,0E0,0E0,1.3325684E1,1.1769287E1,1.0785156E1,1.0225586E1,0E0,0E0,1.6087646E1,0E0,0E0,1.676123E1,0E0,0E0,0E0,0E0,0E0,8.434692E0,0E0,0E0,0E0,0E0,1.4963623E1,0E0,0E0,0E0,0E0,0E0,0E0,0E0],"parents":[2147483647,0,0,1,1,2,2,3,3,4,4,5,5,6,6,7,7,9,9,10,10,11,11,12,12,13,13,14,14,15,15,16,16,17,17,18,18,20,20,21,21,22,22,23,23,25,25,30,30,37,37,39,39,40,40,41,41,45,45,46,46,47,47,48,48,51,51,54,54,60,60,65,65],"right_children":[2,4,6,8,10,12,14,16,-1,18,20,22,24,26,28,30,32,34,36,-1,38,40,42,44,-1,46,-1,-1,-1,-1,48,-1,-1,-1,-1,-1,-1,50,-1,52,54,56,-1,-1,-1,58,60,62,64,-1,-1,66,-1,-1,68,-1,-1,-1,-1,-1,70,-1,-1,-1,-1,72,-1,-1,-1,-1,-1,-1,-1],"split_conditions":[6.1E0,1E0,1.1050892E0,1E0,1.6E0,1E0,9E0,1E0,2.2711109E-1,1E0,1E0,1E0,1E0,1E0,2.41E1,3.1E0,2.0531006E0,4.527857E3,2.4E0,1.4245574E-1,5.4E0,9.3E0,2E0,8.6E1,6.985893E-2,1E0,7.421612E-2,8.602014E-2,5.881352E-2,1.9709153E-1,1E0,3.8549345E-2,1.4468482E-1,1.7142917E-1,1.2249359E-1,1.1358064E-1,2.0193344E-2,2.21E0,6.8164855E-2,2E0,2.56E0,1E0,3.9055627E-2,1.7884181E-1,5.9027012E-2,2E0,6.6E0,1E0,2.306147E4,1.1032148E-1,1.5317614E-2,1E0,1.0013695E-1,6.831031E-2,1E0,1.07613705E-1,8.301522E-2,1.3819084E-1,9.0199314E-2,2.4589008E-2,2.4764884E0,1.8894878E-1,7.9858564E-2,1.6997412E-1,5.7744306E-2,1E0,1.3081138E-1,1.1163604E-1,1.385955E-1,9.829454E-2,5.0912578E-2,1.6942155E-1,5.641007E-2],"split_indices":[29,1,33,12,30,13,38,10,0,9,6,9,8,9,32,29,35,32,36,0,30,29,2,27,0,10,0,0,0,0,6,0,0,0,0,0,0,33,0,1,35,20,0,0,0,1,29,9,32,0,0,10,0,0,15,0,0,0,0,0,36,0,0,0,0,23,0,0,0,0,0,0,0],"split_type":[0,0,0,0,0,0,0,0,0,0,0,0,0,0,0,0,0,0,0,0,0,0,0,0,0,0,0,0,0,0,0,0,0,0,0,0,0,0,0,0,0,0,0,0,0,0,0,0,0,0,0,0,0,0,0,0,0,0,0,0,0,0,0,0,0,0,0,0,0,0,0,0,0],"sum_hessian":[8.276155E3,5.4722075E3,2.8039478E3,4.445625E3,1.0265825E3,1.7473234E3,1.0566244E3,4.0823252E3,3.632995E2,6.531607E2,3.7342184E2,1.3170875E3,4.302359E2,7.063613E2,3.5026306E2,3.9376384E3,1.4468687E2,5.645028E2,8.86579E1,1.3077116E2,2.4265068E2,9.1214276E2,4.0494473E2,4.16298E2,1.3937881E1,4.4776202E2,2.5859933E2,5.6447662E1,2.938154E2,2.4017063E3,1.535932E3,1.2E1,1.3268687E2,5.229748E2,4.1528027E1,8.36579E1,5E0,1.7404475E2,6.860592E1,3.9525885E2,5.168839E2,3.8694473E2,1.8E1,4.0935617E2,6.941844E0,2.219527E2,2.2580933E2,9.204814E2,6.154506E2,1.6904475E2,5E0,3.5595856E2,3.9300304E1,4.6726894E1,4.70157E2,2.6835825E2,1.1858649E2,1.811028E2,4.0849888E1,1E1,2.1580933E2,9.1258936E2,7.8920097E0,6.094506E2,6E0,2.3785246E2,1.181061E2,2.629849E2,2.0717213E2,1.9380933E2,2.2E1,2.309789E2,6.873553E0],"tree_param":{"num_deleted":"0","num_feature":"39","num_nodes":"73","size_leaf_vector":"1"}},{"base_weights":[3.0624063E0,3.493394E0,2.2239816E0,3.6598094E0,2.7585626E0,2.5776768E0,1.6572845E0,3.6017942E0,2.1424969E-1,3.1146448E0,2.228952E0,2.804261E0,1.8682451E0,1.9579074E0,1.299638E0,3.6732254E0,3.1479466E0,1.6228218E-1,2.227062E0,2.6336818E0,1.880076E0,2.5631258E0,1.6643374E-1,1.5823259E0,2.118207E0,2.2213929E0,7.469625E-2,1.4323215E0,4.884517E-2,1.8942784E-1,3.4367068E0,3.2395718E0,1.8764185E0,2.578696E-2,1.162195E-1,1.3984564E-1,7.528218E-2,1.9841712E0,5.196017E-2,2.2658844E0,2.8554246E0,8.130021E-2,6.8589873E-3,1.0850953E-1,3.2108318E-2,2.5694516E0,9.3653955E-2,1.6444728E0,6.042538E-2,1.7757261E-1,1.5176243E-1,1.629895E-1,6.1444998E-2,3.1511616E-2,1.13604166E-1,2.183042E0,1.3664495E0,2.6418655E0,2.0253644E0,7.428569E-2,1.4581826E-1,1.3585128E-1,8.2227446E-2,1.0664245E-1,6.2192496E-2,1.19917825E-1,7.745107E-2,2.549015E-2,8.1395894E-2,1.4717755E-1,1.04784265E-1,5.7888146E-2,2.1156669E0,5.332957E-2,1.0948443E-1],"categories":[],"categories_nodes":[],"categories_segments":[],"categories_sizes":[],"default_left":[0,0,0,0,0,0,0,0,0,0,0,0,0,0,0,0,0,0,0,0,0,0,0,0,0,0,0,0,0,0,0,0,0,0,0,0,0,0,0,0,0,0,0,0,0,0,0,0,0,0,0,0,0,0,0,0,0,0,0,0,0,0,0,0,0,0,0,0,0,0,0,0,0,0,0],"id":3,"left_children":[1,3,5,7,9,11,13,15,-1,17,19,21,23,25,27,29,31,-1,33,35,37,39,-1,41,43,45,-1,47,-1,-1,49,51,53,-1,-1,-1,-1,55,-1,57,59,-1,-1,-1,-1,61,-1,63,-1,-1,-1,-1,-1,-1,-1,65,67,69,71,-1,-1,-1,-1,-1,-1,-1,-1,-1,-1,-1,-1,-1,73,-1,-1],"loss_changes":[2.986211E3,6.4509375E2,5.548711E2,1.2341797E2,1.7378418E2,2.6439062E2,1.0938452E2,1.0315625E2,0E0,5.0513184E1,4.483667E1,1.4308008E2,2.0187134E1,6.1710693E1,1.6526062E1,6.3117188E1,4.9623535E1,0E0,8.964966E0,2.1882812E1,1.3307495E1,6.0952637E1,0E0,1.1010071E1,1.1327332E1,3.0846802E1,0E0,9.942505E0,0E0,0E0,2.6330078E1,9.130371E0,1.5969467E1,0E0,0E0,0E0,0E0,1.56297E1,0E0,2.643628E1,2.4422607E1,0E0,0E0,0E0,0E0,1.1064453E1,0E0,2.5259491E1,0E0,0E0,0E0,0E0,0E0,0E0,0E0,9.135803E0,8.83979E0,1.0991333E1,1.47146E1,0E0,0E0,0E0,0E0,0E0,0E0,0E0,0E0,0E0,0E0,0E0,0E0,0E0,1.2349976E1,0E0,0E0],"parents":[2147483647,0,0,1,1,2,2,3,3,4,4,5,5,6,6,7,7,9,9,10,10,11,11,12,12,13,13,14,14,15,15,16,16,18,18,19,19,20,20,21,21,23,23,24,24,25,25,27,27,30,30,31,31,32,32,37,37,39,39,40,40,45,45,47,47,55,55,56,56,57,57,58,58,72,72],"right_children":[2,4,6,8,10,12,14,16,-1,18,20,22,24,26,28,30,32,-1,34,36,38,40,-1,42,44,46,-1,48,-1,-1,50,52,54,-1,-1,-1,-1,56,-1,58,60,-1,-1,-1,-1,62,-1,64,-1,-1,-1,-1,-1,-1,-1,66,68,70,72,-1,-1,-1,-1,-1,-1,-1,-1,-1,-1,-1,-1,-1,74,-1,-1],"split_conditions":[6.1E0,1E0,1.1050892E0,1E0,1E0,1E0,8E0,1.89E0,2.1424969E-1,1E0,3.6E0,1E0,1.2485573E1,1E0,9.88E3,1E0,1E0,1.6228218E-1,1.01E1,1.8255898E0,8E1,1E0,1.6643374E-1,6.8E0,8.45E1,1E0,7.469625E-2,1E0,4.884517E-2,1.8942784E-1,4.4E0,1E0,2E0,2.578696E-2,1.162195E-1,1.3984564E-1,7.528218E-2,1E0,5.196017E-2,9.3E0,2.5E0,8.130021E-2,6.8589873E-3,1.0850953E-1,3.2108318E-2,2E0,9.3653955E-2,1E0,6.042538E-2,1.7757261E-1,1.5176243E-1,1.629895E-1,6.1444998E-2,3.1511616E-2,1.13604166E-1,1.31E0,2.18E0,1.0620319E0,2.47E0,7.428569E-2,1.4581826E-1,1.3585128E-1,8.2227446E-2,1.0664245E-1,6.2192496E-2,1.19917825E-1,7.745107E-2,2.549015E-2,8.1395894E-2,1.4717755E-1,1.04784265E-1,5.7888146E-2,1.8591036E1,5.332957E-2,1.0948443E-1],"split_indices":[29,1,33,12,2,9,38,30,0,9,29,13,34,9,32,6,10,0,34,33,27,15,0,30,27,10,0,20,0,0,29,8,35,0,0,0,0,9,0,29,35,0,0,0,0,1,0,7,0,0,0,0,0,0,0,33,35,33,35,0,0,0,0,0,0,0,0,0,0,0,0,0,28,0,0],"split_type":[0,0,0,0,0,0,0,0,0,0,0,0,0,0,0,0,0,0,0,0,0,0,0,0,0,0,0,0,0,0,0,0,0,0,0,0,0,0,0,0,0,0,0,0,0,0,0,0,0,0,0,0,0,0,0,0,0,0,0,0,0,0,0,0,0,0,0,0,0,0,0,0,0,0,0],"sum_hessian":[8.320834E3,5.4907944E3,2.830039E3,4.4693174E3,1.0214771E3,1.737034E3,1.093005E3,4.103636E3,3.656813E2,6.0383795E2,4.1763916E2,1.3110009E3,4.2603326E2,5.874629E2,5.055421E2,3.531433E3,5.72203E2,5.20567E2,8.3270935E1,1.859522E2,2.3168695E2,9.0743005E2,4.035707E2,2.0742787E2,2.186054E2,3.684804E2,2.189825E2,3.511867E2,1.543554E2,2.3508496E3,1.1805835E3,5.301209E2,4.2082115E1,5.7118387E0,7.75591E1,1.5908647E2,2.6865728E1,2.0268695E2,2.9E1,4.6028592E2,4.4714413E2,2.0042787E2,7E0,2.096054E2,9E0,1.7649246E2,1.9198795E2,1.714797E2,1.79707E2,9.04013E2,2.7657047E2,5.231209E2,7E0,1.2E1,3.0082117E1,1.482667E2,5.442026E1,1.7016232E2,2.9012363E2,2.1907867E1,4.2523627E2,1.4793248E2,2.8559984E1,7.225458E1,9.922513E1,1.05347694E2,4.2919003E1,1.5E1,3.942026E1,1.0278109E2,6.738123E1,3.1E1,2.5912363E2,2E1,2.3912361E2],"tree_param":{"num_deleted":"0","num_feature":"39","num_nodes":"75","size_leaf_vector":"1"}},{"base_weights":[2.9114463E0,3.3261757E0,2.1287503E0,3.4915683E0,2.58378E0,2.45574E0,1.5545896E0,3.5229306E0,2.4956741E0,3.0433621E0,2.2044604E0,2.6774096E0,1.775457E0,1.8094777E0,1.1988602E0,3.4665587E0,2.0511518E-1,3.919429E-2,1.3316658E-1,1.5658458E-1,9.511616E-2,2.3614793E0,1.4345796E0,2.4536762E0,3.1988704E0,1.5243428E0,2.0454042E0,2.2735188E0,1.5984415E0,1.4303969E0,5.2170824E-2,3.578864E0,3.2403865E0,2.5213883E0,1.6519009E0,8.443444E-2,3.1512912E-2,2.1539104E0,2.7475927E0,1.6153887E-1,5.9593227E-2,7.85368E-2,1.4067058E-2,1.06421106E-1,4.5004707E-2,2.5419335E0,1.7817786E0,1.8134528E0,1.2216067E0,1.0195886E-1,6.2448043E-2,3.6090813E0,1.4555447E-1,3.2490418E0,4.462819E-2,2.7330277E0,1.0596732E-1,3.7139975E-2,9.222773E-2,2.5270853E0,1.9003758E0,3.0044892E0,1.2236877E-1,1.3756135E-1,7.894E-2,9.630958E-2,2.6874924E-2,1.0876941E-1,7.759859E-2,8.4465094E-2,4.9043775E-2,1.8224685E-1,1.5416321E-1,1.6287406E-1,4.553963E-2,1.4230812E-1,1.7310934E0,1.3037384E-1,4.094272E-2,6.307213E-2,1.0283146E-1,5.356083E-2,1.5239199E-1,1.2548851E-3,1.0193676E-1],"categories":[],"categories_nodes":[],"categories_segments":[],"categories_sizes":[],"default_left":[0,0,0,0,0,0,0,0,0,0,0,0,0,0,0,0,0,0,0,0,0,0,0,0,0,0,0,0,0,0,0,0,0,0,0,0,0,0,0,0,0,0,0,0,0,0,0,0,0,0,0,0,0,0,0,0,0,0,0,0,0,0,0,0,0,0,0,0,0,0,0,0,0,0,0,0,0,0,0,0,0,0,0,0,0],"id":4,"left_children":[1,3,5,7,9,11,13,15,17,19,21,23,25,27,29,31,-1,-1,-1,-1,-1,33,35,37,39,41,43,45,47,49,-1,51,53,55,57,-1,-1,59,61,-1,-1,-1,-1,-1,-1,63,65,67,69,-1,-1,71,-1,73,-1,75,-1,-1,-1,77,79,81,-1,-1,-1,-1,-1,-1,-1,-1,-1,-1,-1,-1,-1,-1,83,-1,-1,-1,-1,-1,-1,-1,-1],"loss_changes":[2.6477969E3,6.348711E2,5.238926E2,1.1326172E2,1.5332715E2,2.5941797E2,8.7096924E1,1.0255469E2,3.3022766E1,2.7362549E1,5.578833E1,1.3758496E2,2.087439E1,4.7739624E1,1.0462097E1,6.857422E1,0E0,0E0,0E0,0E0,0E0,3.875879E1,1.58207245E1,6.812695E1,1.3560059E1,1.1348877E1,1.3139832E1,1.0605774E1,2.6686523E1,1.0363586E1,0E0,2.434375E1,1.6713867E1,1.4513184E1,1.0441666E1,0E0,0E0,3.2119873E1,1.6661865E1,0E0,0E0,0E0,0E0,0E0,0E0,9.471191E0,8.435089E0,1.43688965E1,1.2136673E1,0E0,0E0,1.6988281E1,0E0,1.56640625E1,0E0,1.1613037E1,0E0,0E0,0E0,1.8351318E1,2.1456177E1,1.0025391E1,0E0,0E0,0E0,0E0,0E0,0E0,0E0,0E0,0E0,0E0,0E0,0E0,0E0,0E0,1.3218483E1,0E0,0E0,0E0,0E0,0E0,0E0,0E0,0E0],"parents":[2147483647,0,0,1,1,2,2,3,3,4,4,5,5,6,6,7,7,8,8,9,9,10,10,11,11,12,12,13,13,14,14,15,15,21,21,22,22,23,23,24,24,25,25,26,26,27,27,28,28,29,29,31,31,32,32,33,33,34,34,37,37,38,38,45,45,46,46,47,47,48,48,51,51,53,53,55,55,59,59,60,60,61,61,76,76],"right_children":[2,4,6,8,10,12,14,16,18,20,22,24,26,28,30,32,-1,-1,-1,-1,-1,34,36,38,40,42,44,46,48,50,-1,52,54,56,58,-1,-1,60,62,-1,-1,-1,-1,-1,-1,64,66,68,70,-1,-1,72,-1,74,-1,76,-1,-1,-1,78,80,82,-1,-1,-1,-1,-1,-1,-1,-1,-1,-1,-1,-1,-1,-1,84,-1,-1,-1,-1,-1,-1,-1,-1],"split_conditions":[6.1E0,1E0,1.1217694E0,1E0,1.1E0,1E0,1E0,1E0,2.0531006E0,1E0,5.8E0,1E0,1.2538452E1,1E0,9.3E0,1E0,2.0511518E-1,3.919429E-2,1.3316658E-1,1.5658458E-1,9.511616E-2,1E0,2E0,1E0,8.6E1,7.4E0,1.6428514E4,4.5E2,1E0,1.7987097E1,5.2170824E-2,8.1E1,3.298969E4,1.69E2,2.6E0,8.443444E-2,3.1512912E-2,9.3E0,1.4111612E2,1.6153887E-1,5.9593227E-2,7.85368E-2,1.4067058E-2,1.06421106E-1,4.5004707E-2,1.3195242E2,2E0,9.9E0,1E0,1.0195886E-1,6.2448043E-2,1.2929155E0,1.4555447E-1,2.14E0,4.462819E-2,1.43E0,1.0596732E-1,3.7139975E-2,9.222773E-2,3E0,3.23E0,2.4E0,1.2236877E-1,1.3756135E-1,7.894E-2,9.630958E-2,2.6874924E-2,1.0876941E-1,7.759859E-2,8.4465094E-2,4.9043775E-2,1.8224685E-1,1.5416321E-1,1.6287406E-1,4.553963E-2,1.4230812E-1,3.2977543E1,1.3037384E-1,4.094272E-2,6.307213E-2,1.0283146E-1,5.356083E-2,1.5239199E-1,1.2548851E-3,1.0193676E-1],"split_indices":[29,1,33,10,30,9,20,12,35,8,30,13,34,1,29,6,0,0,0,0,0,9,1,15,27,30,32,32,0,32,0,27,32,32,35,0,0,29,32,0,0,0,0,0,0,31,2,29,7,0,0,33,0,33,0,33,0,0,0,1,35,35,0,0,0,0,0,0,0,0,0,0,0,0,0,0,31,0,0,0,0,0,0,0,0],"split_type":[0,0,0,0,0,0,0,0,0,0,0,0,0,0,0,0,0,0,0,0,0,0,0,0,0,0,0,0,0,0,0,0,0,0,0,0,0,0,0,0,0,0,0,0,0,0,0,0,0,0,0,0,0,0,0,0,0,0,0,0,0,0,0,0,0,0,0,0,0,0,0,0,0,0,0,0,0,0,0,0,0,0,0,0,0],"sum_hessian":[8.215365E3,5.364883E3,2.8504827E3,4.380281E3,9.846016E2,1.8108762E3,1.0396063E3,4.2406562E3,1.3962485E2,4.3765625E2,5.469454E2,1.3602865E3,4.505897E2,5.992477E2,4.4035867E2,3.8789353E3,3.6172092E2,1.4E1,1.2562485E2,4.0215906E2,3.549721E1,4.497784E2,9.716696E1,9.612077E2,3.9907886E2,2.4224399E2,2.083457E2,1.7973943E2,4.1950824E2,1.6771158E2,2.726471E2,2.569157E3,1.3097781E3,3.617412E2,8.803722E1,7.122312E1,2.5943838E1,4.857996E2,4.754081E2,3.9114285E2,7.936019E0,2.3224399E2,1E1,1.918496E2,1.6496117E1,1.095628E2,7.0176636E1,2.605611E2,1.5894713E2,3.2539757E1,1.3517181E2,2.448074E3,1.210831E2,1.3037781E3,6E0,2.2776186E2,1.3397935E2,1.8E1,7.003722E1,1.8767854E2,2.9812103E2,2.446848E2,2.307233E2,8.610125E1,2.346155E1,6.1176632E1,9E0,1.0154365E2,1.5901746E2,4.851091E1,1.1043622E2,2.2789075E3,1.6916664E2,1.2978799E3,5.8982115E0,2.0044856E2,2.7313295E1,1.7767854E2,1E1,6.3403725E1,2.347173E2,7E0,2.376848E2,5E0,2.2313295E1],"tree_param":{"num_deleted":"0","num_feature":"39","num_nodes":"85","size_leaf_vector":"1"}},{"base_weights":[2.781331E0,3.1638873E0,1.991791E0,3.3236523E0,2.4823887E0,2.3068733E0,1.4798864E0,3.3562286E0,2.3870852E0,2.8778157E0,2.1245642E0,2.0849636E0,2.998269E0,1.7131677E0,1.160683E0,3.303568E0,1.9636217E-1,1.3226981E-1,1.312922E0,2.9629886E0,7.845434E-2,2.357197E0,1.6266952E0,2.2711911E0,1.6572737E0,1.5324388E-1,7.515595E-2,2.1745496E0,1.469678E0,8.3967276E-2,1.0554068E0,3.4081976E0,3.092854E0,7.9300314E-2,9.920865E-3,1.4932851E-1,5.512278E-2,1.3282837E-1,1.9656826E0,1.8534733E0,5.757151E-2,5.944704E-2,2.3409E0,3.919735E-2,8.647018E-2,2.301715E0,5.3190242E-2,1.5605549E0,4.238569E-2,8.7950185E-2,4.915063E-2,3.4701655E0,1.5556829E-1,1.5962228E-1,1.3690408E-1,2.2906911E0,1.3709158E0,1.1103592E-1,1.4085015E0,2.5859785E0,2.047963E0,3.742405E-2,1.1804117E-1,1.5851318E0,8.1472844E-4,1.762067E-1,1.5695287E-1,1.24003045E-1,6.3731E-2,3.974733E-2,1.7877901E0,8.028683E-2,1.1558614E-2,7.9653874E-2,2.670705E0,1.0599716E-1,5.8706254E-2,1.3001661E0,1.778455E0,1.0398225E-1,1.5946364E-2,1.3721697E-1,8.746251E-2,9.3194075E-2,4.966631E-2,1.07452966E-1,7.6087676E-2],"categories":[],"categories_nodes":[],"categories_segments":[],"categories_sizes":[],"default_left":[0,0,0,0,0,0,0,0,0,0,0,0,0,0,0,0,0,0,0,0,0,0,0,0,0,0,0,0,0,0,0,0,0,0,0,0,0,0,0,0,0,0,0,0,0,0,0,0,0,0,0,0,0,0,0,0,0,0,0,0,0,0,0,0,0,0,0,0,0,0,0,0,0,0,0,0,0,0,0,0,0,0,0,0,0,0,0],"id":5,"left_children":[1,3,5,7,9,11,13,15,17,19,21,23,25,27,29,31,-1,-1,33,35,-1,37,39,41,43,-1,-1,45,47,-1,49,51,53,-1,-1,-1,-1,-1,55,57,-1,-1,59,-1,-1,61,-1,63,-1,-1,-1,65,-1,-1,-1,67,69,-1,71,73,75,-1,-1,77,-1,-1,-1,-1,-1,-1,79,-1,-1,-1,81,-1,-1,83,85,-1,-1,-1,-1,-1,-1,-1,-1],"loss_changes":[2.474379E3,5.82375E2,4.2475293E2,1.1528516E2,1.3328906E2,2.3803223E2,7.023462E1,9.7171875E1,3.319818E1,4.1723145E1,5.4066162E1,8.960791E1,2.5968994E1,5.647986E1,1.8025024E1,6.0234375E1,0E0,0E0,8.401215E0,9.725586E0,0E0,2.9578125E1,1.3045532E1,5.7063965E1,1.9590454E1,0E0,0E0,1.9837341E1,1.7280396E1,0E0,1.3002594E1,2.0361328E1,2.4158203E1,0E0,0E0,0E0,0E0,0E0,2.3728577E1,1.020163E1,0E0,0E0,4.371289E1,0E0,0E0,9.513062E0,0E0,1.1288513E1,0E0,0E0,0E0,9.861328E0,0E0,0E0,0E0,1.081311E1,1.0810448E1,0E0,1.1882156E1,2.4033447E1,1.5971313E1,0E0,0E0,1.0751526E1,0E0,0E0,0E0,0E0,0E0,0E0,1.19729E1,0E0,0E0,0E0,1.2993652E1,0E0,0E0,1.8508377E1,8.059998E0,0E0,0E0,0E0,0E0,0E0,0E0,0E0,0E0],"parents":[2147483647,0,0,1,1,2,2,3,3,4,4,5,5,6,6,7,7,8,8,9,9,10,10,11,11,12,12,13,13,14,14,15,15,18,18,19,19,21,21,22,22,23,23,24,24,27,27,28,28,30,30,31,31,32,32,38,38,39,39,42,42,45,45,47,47,51,51,55,55,56,56,58,58,59,59,60,60,63,63,70,70,74,74,77,77,78,78],"right_children":[2,4,6,8,10,12,14,16,18,20,22,24,26,28,30,32,-1,-1,34,36,-1,38,40,42,44,-1,-1,46,48,-1,50,52,54,-1,-1,-1,-1,-1,56,58,-1,-1,60,-1,-1,62,-1,64,-1,-1,-1,66,-1,-1,-1,68,70,-1,72,74,76,-1,-1,78,-1,-1,-1,-1,-1,-1,80,-1,-1,-1,82,-1,-1,84,86,-1,-1,-1,-1,-1,-1,-1,-1],"split_conditions":[6.4E0,1E0,1.1043773E0,1E0,1.1E0,1E0,1E0,1E0,1.2139285E0,1E0,1E0,1E0,2E0,1E0,1.19E0,1E0,1.9636217E-1,1.3226981E-1,7.7342104E3,8.8E1,7.845434E-2,1E0,2E0,2.5E0,2.4E0,1.5324388E-1,7.515595E-2,2E0,1.4543068E4,8.3967276E-2,3.646039E1,1.54E0,4.4E0,7.9300314E-2,9.920865E-3,1.4932851E-1,5.512278E-2,1.3282837E-1,6.4E2,4.5E0,5.757151E-2,5.944704E-2,1E0,3.919735E-2,8.647018E-2,3.8E1,5.3190242E-2,3.8E0,4.238569E-2,8.7950185E-2,4.915063E-2,7.4083336E1,1.5556829E-1,1.5962228E-1,1.3690408E-1,1E0,3.3E0,1.1103592E-1,8.2E1,1.870009E1,3E0,3.742405E-2,1.1804117E-1,3.3E0,8.1472844E-4,1.762067E-1,1.5695287E-1,1.24003045E-1,6.3731E-2,3.974733E-2,1.2927743E1,8.028683E-2,1.1558614E-2,7.9653874E-2,1.9E0,1.0599716E-1,5.8706254E-2,1E0,9.9E0,1.0398225E-1,1.5946364E-2,1.3721697E-1,8.746251E-2,9.3194075E-2,4.966631E-2,1.07452966E-1,7.6087676E-2],"split_indices":[29,1,33,10,30,13,20,12,33,8,20,9,1,1,33,6,0,0,32,27,0,7,2,35,35,0,0,2,32,0,31,30,29,0,0,0,0,0,32,29,0,0,1,0,0,27,0,36,0,0,0,27,0,0,0,9,35,0,27,28,1,0,0,35,0,0,0,0,0,0,34,0,0,0,36,0,0,7,29,0,0,0,0,0,0,0,0],"split_type":[0,0,0,0,0,0,0,0,0,0,0,0,0,0,0,0,0,0,0,0,0,0,0,0,0,0,0,0,0,0,0,0,0,0,0,0,0,0,0,0,0,0,0,0,0,0,0,0,0,0,0,0,0,0,0,0,0,0,0,0,0,0,0,0,0,0,0,0,0,0,0,0,0,0,0,0,0,0,0,0,0,0,0,0,0,0,0],"sum_hessian":[8.248938E3,5.5516934E3,2.697245E3,4.489898E3,1.0617955E3,1.6640436E3,1.0332014E3,4.3329507E3,1.5694724E2,4.9637674E2,5.6541876E2,1.2668984E3,3.9714508E2,5.90086E2,4.4311545E2,3.9811206E3,3.5183E2,1.23412865E2,3.3534363E1,4.629552E2,3.342154E1,3.7889816E2,1.8652061E2,8.7495935E2,3.9193915E2,3.7755646E2,1.9588612E1,1.969404E2,3.931456E2,6.811794E1,3.749975E2,2.636749E3,1.3443716E3,2.553436E1,8E0,4.5543475E2,7.520453E0,2.0671169E2,1.7218648E2,1.2091889E2,6.560172E1,5.6E1,8.1895935E2,3.2770058E1,3.591691E2,1.7397755E2,2.2962843E1,3.3898907E2,5.4156525E1,2.934879E1,3.456487E2,2.1608833E3,4.758657E2,1.0350089E3,3.093626E2,1.06568375E2,6.56181E1,6.064146E1,6.027743E1,4.3552145E2,3.8343787E2,8E0,1.6597755E2,3.3298907E2,6E0,1.8388558E3,3.2202756E2,8.6568375E1,2E1,3.1E1,3.46181E1,5.027743E1,1E1,3.8283913E1,3.9723755E2,3.5056458E2,3.2873306E1,1.4292937E2,1.9005971E2,2.7618101E1,7E0,3.6317422E2,3.4063335E1,4.5651726E1,9.727764E1,7.0147446E1,1.1991227E2],"tree_param":{"num_deleted":"0","num_feature":"39","num_nodes":"87","size_leaf_vector":"1"}},{"base_weights":[2.6503499E0,3.0226915E0,1.9265047E0,3.1772327E0,2.3491213E0,2.2325683E0,1.4066676E0,3.1256924E0,1.874318E-1,2.730029E0,2.004817E0,2.8271904E0,2.0078022E0,1.731434E0,1.2099991E0,3.209387E0,2.766906E0,1.4052151E-1,8.639461E-2,2.2223768E0,1.5231278E0,3.0394094E0,1.1965861E-1,2.1805255E0,1.4465806E0,2.0727544E0,1.2631439E0,1.3753815E0,5.0201364E-2,1.672888E-1,3.0749412E0,2.9115386E0,2.0126963E0,2.3692062E0,7.578576E-2,9.069441E-2,5.820752E-2,1.5463601E-1,6.970805E-2,2.3407166E0,1.7487277E0,1.6396055E0,4.8838433E-2,7.765808E-2,2.3595746E0,9.657298E-2,5.4245174E-2,1.41756E0,2.3014255E-2,3.092864E0,9.751158E-2,1.508074E-1,1.1967559E-1,2.2252755E0,4.9697533E-2,1.2006124E-1,3.335623E-2,2.532321E0,2.062408E0,8.889039E-2,1.0581664E-2,1.7595562E0,3.6246214E-2,1.2703386E-1,7.6883964E-2,7.466171E-2,4.1703317E-2,1.5602326E-1,1.21879816E-1,7.235008E-3,1.1567154E-1,2.6684716E0,1.03962116E-1,1.1115327E-1,8.22525E-2,1.9707612E0,5.7772297E-2,1.3754639E-1,8.756813E-2,2.1293557E0,4.7265943E-2,3.8175613E-2,1.1178877E-1],"categories":[],"categories_nodes":[],"categories_segments":[],"categories_sizes":[],"default_left":[0,0,0,0,0,0,0,0,0,0,0,0,0,0,0,0,0,0,0,0,0,0,0,0,0,0,0,0,0,0,0,0,0,0,0,0,0,0,0,0,0,0,0,0,0,0,0,0,0,0,0,0,0,0,0,0,0,0,0,0,0,0,0,0,0,0,0,0,0,0,0,0,0,0,0,0,0,0,0,0,0,0,0],"id":6,"left_children":[1,3,5,7,9,11,13,15,-1,17,19,21,23,25,27,29,31,-1,-1,33,35,37,-1,39,41,43,45,47,-1,-1,49,51,53,55,-1,-1,-1,-1,-1,57,59,61,-1,-1,63,-1,-1,65,-1,67,-1,-1,-1,69,-1,-1,-1,71,73,-1,-1,75,-1,-1,-1,-1,-1,-1,-1,-1,-1,77,-1,-1,-1,79,-1,-1,-1,81,-1,-1,-1],"loss_changes":[2.2035273E3,5.453008E2,4.3627344E2,9.967969E1,1.1850342E2,2.1911035E2,5.9670654E1,9.824609E1,0E0,2.4331299E1,4.673535E1,2.39375E1,1.14697754E2,5.343103E1,1.7340088E1,3.3132812E1,6.900195E1,0E0,0E0,2.7380005E1,1.1352631E1,1.4191406E1,0E0,5.5361816E1,2.228241E1,2.154718E1,1.3030853E1,1.0633301E1,0E0,0E0,1.6753906E1,1.5549316E1,2.1361206E1,1.019043E1,0E0,0E0,0E0,0E0,0E0,2.2588379E1,9.514465E0,1.8573792E1,0E0,0E0,8.451538E0,0E0,0E0,1.02022705E1,0E0,9.055664E0,0E0,0E0,0E0,1.6750732E1,0E0,0E0,0E0,9.263184E0,8.975464E0,0E0,0E0,1.62901E1,0E0,0E0,0E0,0E0,0E0,0E0,0E0,0E0,0E0,8.866943E0,0E0,0E0,0E0,1.4877563E1,0E0,0E0,0E0,1.02438965E1,0E0,0E0,0E0],"parents":[2147483647,0,0,1,1,2,2,3,3,4,4,5,5,6,6,7,7,9,9,10,10,11,11,12,12,13,13,14,14,15,15,16,16,19,19,20,20,21,21,23,23,24,24,25,25,26,26,27,27,30,30,31,31,32,32,33,33,39,39,40,40,41,41,44,44,47,47,49,49,53,53,57,57,58,58,61,61,71,71,75,75,79,79],"right_children":[2,4,6,8,10,12,14,16,-1,18,20,22,24,26,28,30,32,-1,-1,34,36,38,-1,40,42,44,46,48,-1,-1,50,52,54,56,-1,-1,-1,-1,-1,58,60,62,-1,-1,64,-1,-1,66,-1,68,-1,-1,-1,70,-1,-1,-1,72,74,-1,-1,76,-1,-1,-1,-1,-1,-1,-1,-1,-1,78,-1,-1,-1,80,-1,-1,-1,82,-1,-1,-1],"split_conditions":[6.1E0,1E0,1.1050892E0,1E0,1.1E0,1E0,1E0,1E0,1.874318E-1,1E0,1E0,1E0,1E0,1E0,2.5E0,2.7E0,1E0,1.4052151E-1,8.639461E-2,1E0,2.7E0,2.1E0,1.1965861E-1,1E0,1E0,3.21E0,1.19E0,1.88E1,5.0201364E-2,1.672888E-1,1E0,3.24E2,2E0,1.95E0,7.578576E-2,9.069441E-2,5.820752E-2,1.5463601E-1,6.970805E-2,5.1E2,3.85E2,1.6E1,4.8838433E-2,7.765808E-2,1E0,9.657298E-2,5.4245174E-2,7.7E1,2.3014255E-2,1.2929155E0,9.751158E-2,1.508074E-1,1.1967559E-1,6.1E-1,4.9697533E-2,1.2006124E-1,3.335623E-2,7.143417E1,6E0,8.889039E-2,1.0581664E-2,2E0,3.6246214E-2,1.2703386E-1,7.6883964E-2,7.466171E-2,4.1703317E-2,1.5602326E-1,1.21879816E-1,7.235008E-3,1.1567154E-1,2E0,1.03962116E-1,1.1115327E-1,8.22525E-2,1.89E0,5.7772297E-2,1.3754639E-1,8.756813E-2,1.8442545E1,4.7265943E-2,3.8175613E-2,1.1178877E-1],"split_indices":[29,1,33,12,30,6,10,2,0,8,20,11,20,20,30,29,20,0,0,9,30,30,0,9,24,35,33,29,0,0,9,32,2,33,0,0,0,0,0,32,31,29,0,0,9,0,0,27,0,33,0,0,0,30,0,0,0,31,38,0,0,1,0,0,0,0,0,0,0,0,0,1,0,0,0,30,0,0,0,28,0,0,0],"split_type":[0,0,0,0,0,0,0,0,0,0,0,0,0,0,0,0,0,0,0,0,0,0,0,0,0,0,0,0,0,0,0,0,0,0,0,0,0,0,0,0,0,0,0,0,0,0,0,0,0,0,0,0,0,0,0,0,0,0,0,0,0,0,0,0,0,0,0,0,0,0,0,0,0,0,0,0,0,0,0,0,0,0,0],"sum_hessian":[8.235408E3,5.4329814E3,2.802427E3,4.4118306E3,1.02115106E3,1.7585413E3,1.0438859E3,4.0602847E3,3.5154584E2,4.7684726E2,5.443038E2,4.748121E2,1.2837291E3,3.859157E2,6.5797015E2,3.2771426E3,7.8314215E2,4.3716678E2,3.9680492E1,3.6854367E2,1.757601E2,3.0927692E2,1.6553519E2,9.758471E2,3.0788208E2,2.1802034E2,1.6789537E2,3.5595255E2,3.020176E2,1.5994078E3,1.6777347E3,6.512141E2,1.3192802E2,3.0007416E2,6.846952E1,9.108917E1,8.467093E1,2.9727692E2,1.2E1,7.0364624E2,2.7220084E2,2.1318533E2,9.469675E1,8.33476E1,1.3467274E2,3.0026728E1,1.3786864E2,3.3817447E2,1.7778046E1,1.6470985E3,3.0636175E1,5.321732E2,1.1904093E2,1.0637975E2,2.5548267E1,2.9315054E2,6.9236264E0,4.0501715E2,2.9862912E2,2.6620084E2,6E0,1.8586986E2,2.7315485E1,1.05931755E2,2.8740984E1,2.9507385E2,4.310063E1,1.5718391E3,7.52594E1,5E0,1.0137975E2,3.0221478E2,1.0280236E2,2.0764821E2,9.098091E1,1.3314186E2,5.2727993E1,2.7261484E2,2.9599943E1,1.125991E2,2.0542763E1,1E1,1.025991E2],"tree_param":{"num_deleted":"0","num_feature":"39","num_nodes":"83","size_leaf_vector":"1"}},{"base_weights":[2.5263717E0,2.950339E0,1.9356071E0,3.076882E0,2.3346026E0,2.1673725E0,1.3000476E0,3.0295775E0,1.7710637E-1,2.718664E0,1.982102E0,2.5088606E0,1.7521222E0,1.5336723E0,1.0368418E0,3.073549E0,2.5248797E0,2.7952673E0,7.740878E-2,1.17992185E-1,1.6848657E0,2.6608276E0,1.8701563E0,2.1225626E0,1.4561057E0,3.1507947E-2,1.5806217E0,5.9988398E-2,4.3101925E-2,2.9583526E0,1.6158904E-1,1.2871759E-1,5.3135496E-2,1.4192007E-1,6.868058E-2,1.7778906E0,3.0024214E-2,2.7866602E0,2.0990038E0,2.132694E0,4.9839705E-2,1.9542999E0,1.3274102E-1,1.6567936E0,1.1359118E0,1.6986084E0,6.376801E-2,1.4913885E-1,1.05011456E-1,2.0915334E0,6.7823835E-2,1.5019004E-1,1.2829679E-1,1.7337513E0,1.224116E-1,1.23561494E-1,8.03377E-2,1.14880204E-1,8.518603E-2,1.8889416E0,7.122629E-2,7.610302E-2,4.844249E-2,8.610373E-2,1.098224E-3,1.0738247E-1,1.887802E-2,1.8346674E0,3.8212948E-3,1.7185129E0,1.2950324E-1,9.882585E-2,3.678827E-2,5.7127576E-2,9.651631E-2],"categories":[],"categories_nodes":[],"categories_segments":[],"categories_sizes":[],"default_left":[0,0,0,0,0,0,0,0,0,0,0,0,0,0,0,0,0,0,0,0,0,0,0,0,0,0,0,0,0,0,0,0,0,0,0,0,0,0,0,0,0,0,0,0,0,0,0,0,0,0,0,0,0,0,0,0,0,0,0,0,0,0,0,0,0,0,0,0,0,0,0,0,0,0,0],"id":7,"left_children":[1,3,5,7,9,11,13,15,-1,17,19,21,23,25,27,29,31,33,-1,-1,35,37,39,41,43,-1,45,-1,-1,47,-1,-1,-1,-1,-1,49,-1,51,53,55,-1,57,-1,59,61,63,-1,-1,-1,65,-1,-1,-1,67,-1,-1,-1,-1,-1,69,-1,-1,-1,-1,-1,-1,-1,71,-1,73,-1,-1,-1,-1,-1],"loss_changes":[2.017043E3,3.4811328E2,4.9153223E2,5.8E1,9.479883E1,3.3952344E2,5.0474243E1,5.7976562E1,0E0,2.135083E1,3.6673096E1,1.1736621E2,1.1414746E2,1.608252E1,8.348022E0,3.4242188E1,1.2494995E1,9.8376465E0,0E0,0E0,2.0812134E1,6.0568848E1,5.4316772E1,2.9437012E1,3.430835E1,0E0,8.980591E0,0E0,0E0,2.2591797E1,0E0,0E0,0E0,0E0,0E0,2.1192566E1,0E0,2.1387695E1,1.4021057E1,2.4348206E1,0E0,2.1365479E1,0E0,1.2045044E1,1.0900452E1,1.0682434E1,0E0,0E0,0E0,8.014282E0,0E0,0E0,0E0,1.6295685E1,0E0,0E0,0E0,0E0,0E0,8.7855835E0,0E0,0E0,0E0,0E0,0E0,0E0,0E0,1.05182495E1,0E0,1.1447174E1,0E0,0E0,0E0,0E0,0E0],"parents":[2147483647,0,0,1,1,2,2,3,3,4,4,5,5,6,6,7,7,9,9,10,10,11,11,12,12,13,13,14,14,15,15,16,16,17,17,20,20,21,21,22,22,23,23,24,24,26,26,29,29,35,35,37,37,38,38,39,39,41,41,43,43,44,44,45,45,49,49,53,53,59,59,67,67,69,69],"right_children":[2,4,6,8,10,12,14,16,-1,18,20,22,24,26,28,30,32,34,-1,-1,36,38,40,42,44,-1,46,-1,-1,48,-1,-1,-1,-1,-1,50,-1,52,54,56,-1,58,-1,60,62,64,-1,-1,-1,66,-1,-1,-1,68,-1,-1,-1,-1,-1,70,-1,-1,-1,-1,-1,-1,-1,72,-1,74,-1,-1,-1,-1,-1],"split_conditions":[5.1E0,1E0,1E0,1E0,1.1E0,1E0,1.1043773E0,1.26E0,1.7710637E-1,1E0,1E0,1E0,6E0,2.1E0,8E0,3.9485164E0,1E0,8.7E1,7.740878E-2,1.17992185E-1,1.261E1,1E0,1.6E0,1E0,1E0,3.1507947E-2,1E0,5.9988398E-2,4.3101925E-2,1E0,1.6158904E-1,1.2871759E-1,5.3135496E-2,1.4192007E-1,6.868058E-2,1.801733E2,3.0024214E-2,1E0,3.7022226E0,1.3E0,4.9839705E-2,8.744411E0,1.3274102E-1,1E0,1.6E0,3.85E2,6.376801E-2,1.4913885E-1,1.05011456E-1,1E0,6.7823835E-2,1.5019004E-1,1.2829679E-1,3.6006403E0,1.224116E-1,1.23561494E-1,8.03377E-2,1.14880204E-1,8.518603E-2,1E0,7.122629E-2,7.610302E-2,4.844249E-2,8.610373E-2,1.098224E-3,1.0738247E-1,1.887802E-2,1.74E0,3.8212948E-3,2.47E0,1.2950324E-1,9.882585E-2,3.678827E-2,5.7127576E-2,9.651631E-2],"split_indices":[29,1,9,12,30,1,33,33,0,8,6,20,38,35,38,35,10,27,0,0,30,10,36,13,20,0,20,0,0,10,0,0,0,0,0,32,0,6,35,30,0,29,0,7,30,31,0,0,0,25,0,0,0,35,0,0,0,0,0,13,0,0,0,0,0,0,0,36,0,35,0,0,0,0,0],"split_type":[0,0,0,0,0,0,0,0,0,0,0,0,0,0,0,0,0,0,0,0,0,0,0,0,0,0,0,0,0,0,0,0,0,0,0,0,0,0,0,0,0,0,0,0,0,0,0,0,0,0,0,0,0,0,0,0,0,0,0,0,0,0,0,0,0,0,0,0,0,0,0,0,0,0,0],"sum_hessian":[8.1163154E3,4.7195845E3,3.3967312E3,3.9070178E3,8.125666E2,2.4843757E3,9.1235547E2,3.5620183E3,3.449995E2,3.8109207E2,4.3147452E2,1.356414E3,1.1279618E3,4.7621143E2,4.3614404E2,3.2653635E3,2.966547E2,3.5427567E2,2.6816425E1,1.8241289E2,2.4906163E2,1.0893318E3,2.6708224E2,4.9401868E2,6.339432E2,2.6E1,4.5021143E2,2.1671037E2,2.1943367E2,1.9161053E3,1.3492582E3,2.8481296E2,1.184174E1,3.4122614E2,1.3049532E1,2.2735637E2,2.1705263E1,8.8207263E2,2.0725912E2,2.0225449E2,6.482775E1,3.838837E2,1.1013501E2,3.8264243E2,2.5130072E2,3.1576157E2,1.3444984E2,1.8571292E3,5.897614E1,1.24440575E2,1.02915794E2,4.2965005E2,4.5242255E2,1.0853577E2,9.8723366E1,1.17392715E2,8.486177E1,1.5339589E2,2.304878E2,1.8208289E2,2.0055956E2,6.9183105E1,1.8211761E2,3.1076157E2,5E0,1.19440575E2,5E0,1.0153577E2,7E0,1.531771E2,2.8905798E1,8.770702E1,1.3828744E1,4.5893436E1,1.0728365E2],"tree_param":{"num_deleted":"0","num_feature":"39","num_nodes":"75","size_leaf_vector":"1"}},{"base_weights":[2.4060025E0,2.811791E0,1.8348683E0,2.9265182E0,2.2377439E0,2.055089E0,1.2409877E0,2.878976E0,1.7026792E-1,2.5349228E0,1.7519224E0,2.3822107E0,1.6578821E0,1.455043E0,9.877645E-1,2.7536786E0,1.5368691E-1,2.6123157E0,7.2604105E-2,1.9483384E0,6.117795E-2,2.5394404E0,1.7535461E0,1.920356E0,1.3058012E0,8.051386E-2,1.0741053E0,5.1961225E-2,2.565142E-2,2.8075569E0,1.19136214E-1,1.3509803E-1,9.941404E-2,1.029339E-1,5.8067776E-2,2.6481638E0,1.9896486E0,1.9422773E0,4.253109E-2,1.198972E-1,1.7915729E0,1.5060363E0,4.8014715E-2,5.7175286E-2,7.665747E-3,7.680228E-2,2.8175123E0,1.419678E-1,1.2234199E-1,2.1903353E0,4.113095E-2,1.1040781E-1,1.6099434E0,1.8998765E0,1.3342186E0,9.050954E-2,6.638896E-2,1.4144512E-1,8.843623E-2,1.15007676E-1,5.2561462E-2,8.587618E-2,2.2344338E-2,1.0123856E-1,7.488906E-2,8.0725305E-2,3.879282E-2],"categories":[],"categories_nodes":[],"categories_segments":[],"categories_sizes":[],"default_left":[0,0,0,0,0,0,0,0,0,0,0,0,0,0,0,0,0,0,0,0,0,0,0,0,0,0,0,0,0,0,0,0,0,0,0,0,0,0,0,0,0,0,0,0,0,0,0,0,0,0,0,0,0,0,0,0,0,0,0,0,0,0,0,0,0,0,0],"id":8,"left_children":[1,3,5,7,9,11,13,15,-1,17,19,21,23,25,27,29,-1,31,-1,33,-1,35,37,39,41,-1,43,-1,-1,45,-1,-1,-1,-1,-1,47,49,51,-1,-1,53,55,-1,-1,-1,-1,57,-1,-1,59,-1,-1,61,63,65,-1,-1,-1,-1,-1,-1,-1,-1,-1,-1,-1,-1],"loss_changes":[1.8923945E3,2.9829688E2,4.3957617E2,6.511719E1,1.0385913E2,3.121748E2,4.524585E1,6.636133E1,0E0,3.0014648E1,2.4791931E1,1.2142041E2,9.6599365E1,2.3373291E1,8.02533E0,2.6289062E1,0E0,1.0334717E1,0E0,1.1550842E1,0E0,4.9604004E1,4.165326E1,2.683252E1,2.8707642E1,0E0,8.0905E0,0E0,0E0,1.162793E1,0E0,0E0,0E0,0E0,0E0,1.535498E1,3.7528748E1,9.332214E0,0E0,0E0,1.7296997E1,8.666931E0,0E0,0E0,0E0,0E0,8.426758E0,0E0,0E0,1.1689819E1,0E0,0E0,1.0184509E1,1.1072632E1,1.1919418E1,0E0,0E0,0E0,0E0,0E0,0E0,0E0,0E0,0E0,0E0,0E0,0E0],"parents":[2147483647,0,0,1,1,2,2,3,3,4,4,5,5,6,6,7,7,9,9,10,10,11,11,12,12,13,13,14,14,15,15,17,17,19,19,21,21,22,22,23,23,24,24,26,26,29,29,35,35,36,36,37,37,40,40,41,41,46,46,49,49,52,52,53,53,54,54],"right_children":[2,4,6,8,10,12,14,16,-1,18,20,22,24,26,28,30,-1,32,-1,34,-1,36,38,40,42,-1,44,-1,-1,46,-1,-1,-1,-1,-1,48,50,52,-1,-1,54,56,-1,-1,-1,-1,58,-1,-1,60,-1,-1,62,64,66,-1,-1,-1,-1,-1,-1,-1,-1,-1,-1,-1,-1],"split_conditions":[5.1E0,1E0,1E0,1E0,1.48E0,1E0,1.1043773E0,3.9485164E0,1.7026792E-1,1E0,5.4E2,1E0,1.43E0,1E0,8E1,5.4E2,1.5368691E-1,1E0,7.2604105E-2,2.2E0,6.117795E-2,1E0,2E0,1E0,9E0,8.051386E-2,2E0,5.1961225E-2,2.565142E-2,2.18E0,1.19136214E-1,1.3509803E-1,9.941404E-2,1.029339E-1,5.8067776E-2,1E0,1.67E0,1.18E0,4.253109E-2,1.198972E-1,1E0,1.275E2,4.8014715E-2,5.7175286E-2,7.665747E-3,7.680228E-2,1E0,1.419678E-1,1.2234199E-1,1.5E1,4.113095E-2,1.1040781E-1,1.74E0,6.3E1,2.48E2,9.050954E-2,6.638896E-2,1.4144512E-1,8.843623E-2,1.15007676E-1,5.2561462E-2,8.587618E-2,2.2344338E-2,1.0123856E-1,7.488906E-2,8.0725305E-2,3.879282E-2],"split_indices":[29,1,9,12,30,1,33,35,0,8,32,10,30,20,27,32,0,0,0,36,0,20,2,6,38,0,2,0,0,35,0,0,0,0,0,6,36,30,0,0,20,32,0,0,0,0,9,0,0,29,0,0,36,31,37,0,0,0,0,0,0,0,0,0,0,0,0],"split_type":[0,0,0,0,0,0,0,0,0,0,0,0,0,0,0,0,0,0,0,0,0,0,0,0,0,0,0,0,0,0,0,0,0,0,0,0,0,0,0,0,0,0,0,0,0,0,0,0,0,0,0,0,0,0,0,0,0,0,0,0,0,0,0,0,0,0,0],"sum_hessian":[8.227887E3,4.8046245E3,3.423262E3,3.9960483E3,8.0857623E2,2.4924253E3,9.308368E2,3.6497888E3,3.4625974E2,4.9517902E2,3.1339722E2,1.359933E3,1.1324922E3,4.9714633E2,4.3369046E2,2.242512E3,1.4072767E3,4.5865002E2,3.652899E1,2.2316812E2,9.022909E1,1.0817234E3,2.782096E2,6.420784E2,4.904138E2,3.4676028E2,1.5038605E2,3.872312E2,4.645926E1,1.9442866E3,2.9822537E2,3.9381497E2,6.483506E1,1.9177733E2,3.1390789E1,8.9523517E2,1.8648825E2,2.2729102E2,5.0918587E1,1.2723321E2,5.148452E2,3.0439343E2,1.8602034E2,1.3838605E2,1.2E1,1.829792E1,1.9259886E3,4.4318274E2,4.5205243E2,1.568971E2,2.9591167E1,1.18327255E2,1.0896376E2,4.0940225E2,1.05442986E2,1.0363852E2,2.0075493E2,1.9009954E3,2.4993269E1,1.4044113E2,1.6455963E1,9.8078445E1,1.0885311E1,3.0431958E2,1.0508267E2,6.649152E1,3.8951458E1],"tree_param":{"num_deleted":"0","num_feature":"39","num_nodes":"67","size_leaf_vector":"1"}},{"base_weights":[2.302745E0,2.6311116E0,1.646927E0,2.730033E0,1.8466108E0,1.926203E0,1.2087017E0,2.759493E0,7.742338E-2,2.0729215E0,1.2312653E0,2.4490361E0,1.736168E0,1.4244772E0,9.4838566E-1,2.7867513E0,1.7624054E0,2.1945205E0,6.74378E-2,9.411429E-2,1.0222913E0,1.3168395E-1,2.0912602E0,1.9081892E0,1.3414897E0,8.684892E-2,1.1952956E0,4.462711E-2,7.267652E-2,2.7423167E0,1.63963E-1,9.292406E-2,2.0944372E-2,1.0087923E-1,1.3120936E-1,1.2731519E0,2.765353E-2,5.509038E-2,1.12275794E-1,1.9878058E0,1.2959228E0,1.4977292E0,4.8034754E-2,6.675078E-2,4.188119E-2,2.8551087E0,2.5069814E0,7.218981E-2,2.3840265E-2,2.0293357E0,4.527768E-2,7.474249E-2,2.97732E-2,1.233479E0,8.814903E-2,1.4879851E-1,1.3627057E-1,2.5381587E0,8.4009476E-2,2.3448641E0,9.404056E-2,7.28866E-2,3.990227E-2,1.3038886E-1,1.09867565E-1,1.2718873E-1,8.427243E-2],"categories":[],"categories_nodes":[],"categories_segments":[],"categories_sizes":[],"default_left":[0,0,0,0,0,0,0,0,0,0,0,0,0,0,0,0,0,0,0,0,0,0,0,0,0,0,0,0,0,0,0,0,0,0,0,0,0,0,0,0,0,0,0,0,0,0,0,0,0,0,0,0,0,0,0,0,0,0,0,0,0,0,0,0,0,0,0],"id":9,"left_children":[1,3,5,7,9,11,13,15,-1,17,19,21,23,25,27,29,31,33,-1,-1,35,-1,37,39,41,-1,43,-1,-1,45,-1,-1,-1,-1,-1,47,-1,-1,-1,49,51,53,-1,-1,-1,55,57,-1,-1,59,-1,-1,-1,61,-1,-1,-1,63,-1,65,-1,-1,-1,-1,-1,-1,-1],"loss_changes":[1.7338945E3,4.0447266E2,3.242129E2,1.5391016E2,7.682886E1,1.514585E2,5.4615112E1,1.12578125E2,0E0,2.9580566E1,1.6469238E1,1.2939453E1,7.445752E1,3.4093506E1,8.873474E0,7.539453E1,1.303775E1,1.3298096E1,0E0,0E0,1.2627563E1,0E0,1.6024048E1,3.2664795E1,1.720166E1,0E0,1.2579803E1,0E0,0E0,9.128711E1,0E0,0E0,0E0,0E0,0E0,8.237839E0,0E0,0E0,0E0,2.6691162E1,1.06506195E1,1.1100586E1,0E0,0E0,0E0,2.2103516E1,2.266211E1,0E0,0E0,2.0276367E1,0E0,0E0,0E0,9.125305E0,0E0,0E0,0E0,1.5022461E1,0E0,1.5700195E1,0E0,0E0,0E0,0E0,0E0,0E0,0E0],"parents":[2147483647,0,0,1,1,2,2,3,3,4,4,5,5,6,6,7,7,9,9,10,10,11,11,12,12,13,13,14,14,15,15,16,16,17,17,20,20,22,22,23,23,24,24,26,26,29,29,35,35,39,39,40,40,41,41,45,45,46,46,49,49,53,53,57,57,59,59],"right_children":[2,4,6,8,10,12,14,16,-1,18,20,22,24,26,28,30,32,34,-1,-1,36,-1,38,40,42,-1,44,-1,-1,46,-1,-1,-1,-1,-1,48,-1,-1,-1,50,52,54,-1,-1,-1,56,58,-1,-1,60,-1,-1,-1,62,-1,-1,-1,64,-1,66,-1,-1,-1,-1,-1,-1,-1],"split_conditions":[6.4E0,1E0,1.1050892E0,1E0,1E0,1E0,8E0,2E0,7.742338E-2,1E0,1E0,1E0,1E0,9.9E0,1E0,1E0,6.8E0,1E0,6.74378E-2,9.411429E-2,3.8E0,1.3168395E-1,2.1096191E1,2E0,1E0,8.684892E-2,1E0,4.462711E-2,7.267652E-2,6E0,1.63963E-1,9.292406E-2,2.0944372E-2,1.0087923E-1,1.3120936E-1,7.3E1,2.765353E-2,5.509038E-2,1.12275794E-1,9E0,8E1,1.2538452E1,4.8034754E-2,6.675078E-2,4.188119E-2,2.7E0,1.8255898E0,7.218981E-2,2.3840265E-2,2.1E1,4.527768E-2,7.474249E-2,2.97732E-2,6.498167E1,8.814903E-2,1.4879851E-1,1.3627057E-1,2.6E2,8.4009476E-2,1.16E1,9.404056E-2,7.28866E-2,3.990227E-2,1.3038886E-1,1.09867565E-1,1.2718873E-1,8.427243E-2],"split_indices":[29,10,33,9,0,6,38,1,0,20,6,11,9,29,19,12,30,13,0,0,30,0,28,1,20,0,20,0,0,38,0,0,0,0,0,27,0,0,0,38,27,34,0,0,0,29,33,0,0,32,0,0,0,31,0,0,0,32,0,29,0,0,0,0,0,0,0],"split_type":[0,0,0,0,0,0,0,0,0,0,0,0,0,0,0,0,0,0,0,0,0,0,0,0,0,0,0,0,0,0,0,0,0,0,0,0,0,0,0,0,0,0,0,0,0,0,0,0,0,0,0,0,0,0,0,0,0,0,0,0,0,0,0,0,0,0,0],"sum_hessian":[8.1096733E3,5.398905E3,2.7107686E3,4.7888257E3,6.100789E2,1.6501034E3,1.0606652E3,4.668898E3,1.1992784E2,4.4138464E2,1.6869427E2,4.3214056E2,1.2179628E3,5.729566E2,4.877085E2,4.540187E3,1.2871117E2,3.732657E2,6.811895E1,3.5937553E1,1.3275673E2,2.748019E2,1.5733865E2,8.411452E2,3.768176E2,2.350001E2,3.379565E2,4.4592514E2,4.1783344E1,4.1783774E3,3.6180942E2,1.1871117E2,1E1,2.7410745E2,9.915823E1,8.288557E1,4.9871162E1,2.4291594E1,1.3304707E2,7.3893097E2,1.0221419E2,2.6116827E2,1.1564934E2,2.3708241E2,1.0087409E2,2.8066763E3,1.3717012E3,6.588557E1,1.7E1,7.0904816E2,2.988286E1,7.6727974E1,2.548622E1,1.3838058E2,1.22787674E2,1.4261154E3,1.3805609E3,1.3167004E3,5.500069E1,2.1531665E2,4.9373148E2,8.6724464E1,5.1656124E1,1.0798722E3,2.3682828E2,1.5986284E2,5.5453808E1],"tree_param":{"num_deleted":"0","num_feature":"39","num_nodes":"67","size_leaf_vector":"1"}},{"base_weights":[2.1820114E0,2.4998322E0,1.578136E0,2.6317434E0,1.936089E0,1.8326162E0,1.157522E0,2.5846822E0,1.5673585E-1,2.2054615E0,1.5433018E0,1.6556034E0,2.3964353E0,1.3437941E0,8.819554E-1,2.704497E0,2.3597455E0,2.3215652E0,1.4744952E0,9.6612915E-2,1.2736698E0,1.8032551E0,1.3062305E0,1.2219641E-1,4.710842E-2,1.6065114E0,5.4540437E-2,1.0878843E0,3.6348168E-2,2.7431715E0,1.1026391E-1,2.4173198E0,1.4560257E0,2.3429785E0,1.3446293E-2,7.7609636E-2,-0E0,1.4848459E0,3.1513143E-2,1.8830857E0,5.9806287E-2,1.4443257E0,4.925577E-2,1.7902435E0,5.7833917E-2,1.781884E0,4.4483375E-2,1.382901E-1,2.0345938E0,1.2432208E-1,2.034856E0,1.608843E-2,8.140745E-2,8.223323E-2,2.4009607E0,1.5672317E0,2.627479E-2,2.105127E0,1.5930542E0,1.5388265E0,4.148659E-2,2.104779E0,7.573092E-2,1.0435619E-1,1.2846516E-2,1.127406E-1,3.7727803E-2,1.20779715E-1,1.5964367E0,1.2172454E-1,6.179721E-2,1.1439013E0,9.01347E-2,2.172147E0,5.2036673E-2,3.3868916E-2,8.239578E-2,1.5674137E0,6.414628E-4,1.15475856E-1,1.1855515E0,8.575603E-2,-0E0,6.2131073E-2,-0E0,1.17430344E-1,1.7247902E0,8.3588034E-2,4.8794813E-2,7.620292E-2,-0E0,9.143992E-2,2.9069668E-2],"categories":[],"categories_nodes":[],"categories_segments":[],"categories_sizes":[],"default_left":[0,0,0,0,0,0,0,0,0,0,0,0,0,0,0,0,0,0,0,0,0,0,0,0,0,0,0,0,0,0,0,0,0,0,0,0,0,0,0,0,0,0,0,0,0,0,0,0,0,0,0,0,0,0,0,0,0,0,0,0,0,0,0,0,0,0,0,0,0,0,0,0,0,0,0,0,0,0,0,0,0,0,0,0,0,0,0,0,0,0,0,0,0],"id":10,"left_children":[1,3,5,7,9,11,13,15,-1,17,19,21,23,25,27,29,31,33,35,-1,37,39,41,-1,-1,43,-1,45,-1,47,-1,49,51,53,-1,-1,-1,55,-1,57,-1,59,-1,61,-1,63,-1,-1,65,-1,67,-1,-1,-1,69,71,-1,73,75,77,-1,79,-1,-1,-1,-1,-1,-1,81,-1,-1,83,-1,85,-1,-1,-1,87,-1,-1,89,-1,-1,-1,-1,-1,91,-1,-1,-1,-1,-1,-1],"loss_changes":[1.542707E3,3.7957422E2,2.9244482E2,7.962891E1,9.678638E1,1.6161475E2,4.9931152E1,8.8259766E1,0E0,3.990747E1,3.6012573E1,6.0872803E1,2.03125E1,3.552722E1,1.0533203E1,3.2220703E1,6.1234863E1,1.8515137E1,8.719223E0,0E0,3.0790833E1,3.743213E1,1.2678284E1,0E0,0E0,1.7857483E1,0E0,1.9004395E1,0E0,2.1759766E1,0E0,1.9715332E1,1.4401138E1,8.436523E0,0E0,0E0,0E0,1.1282135E1,0E0,4.2138428E1,0E0,1.1145081E1,0E0,8.130005E0,0E0,1.3811607E1,0E0,0E0,1.667981E1,0E0,2.3685669E1,0E0,0E0,0E0,8.244385E0,1.0179871E1,0E0,2.4648438E1,1.3726013E1,8.675842E0,0E0,8.120544E0,0E0,0E0,0E0,0E0,0E0,0E0,1.952539E1,0E0,0E0,8.499443E0,0E0,2.1322021E1,0E0,0E0,0E0,8.348877E0,0E0,0E0,8.145098E0,0E0,0E0,0E0,0E0,0E0,1.0823944E1,0E0,0E0,0E0,0E0,0E0,0E0],"parents":[2147483647,0,0,1,1,2,2,3,3,4,4,5,5,6,6,7,7,9,9,10,10,11,11,12,12,13,13,14,14,15,15,16,16,17,17,18,18,20,20,21,21,22,22,25,25,27,27,29,29,31,31,32,32,33,33,37,37,39,39,41,41,43,43,45,45,48,48,50,50,54,54,55,55,57,57,58,58,59,59,61,61,68,68,71,71,73,73,77,77,80,80,86,86],"right_children":[2,4,6,8,10,12,14,16,-1,18,20,22,24,26,28,30,32,34,36,-1,38,40,42,-1,-1,44,-1,46,-1,48,-1,50,52,54,-1,-1,-1,56,-1,58,-1,60,-1,62,-1,64,-1,-1,66,-1,68,-1,-1,-1,70,72,-1,74,76,78,-1,80,-1,-1,-1,-1,-1,-1,82,-1,-1,84,-1,86,-1,-1,-1,88,-1,-1,90,-1,-1,-1,-1,-1,92,-1,-1,-1,-1,-1,-1],"split_conditions":[6.1E0,1E0,1.1050892E0,1E0,1E0,1E0,1E0,1E0,1.5673585E-1,1E0,1E0,1E0,1E0,1.05E1,9.9E0,1.2929155E0,1E0,2.306147E4,1.1609E4,9.6612915E-2,6.2E0,2E0,1.28E1,1.2219641E-1,4.710842E-2,1E0,5.4540437E-2,1.87E1,3.6348168E-2,8.2E1,1.1026391E-1,1E0,2.56E0,1.9817677E1,1.3446293E-2,7.7609636E-2,-0E0,7.9E1,3.1513143E-2,1E0,5.9806287E-2,1.6E0,4.925577E-2,1.5380447E2,5.7833917E-2,1.41E0,4.4483375E-2,1.382901E-1,1E0,1.2432208E-1,1.43E2,1.608843E-2,8.140745E-2,8.223323E-2,3E0,6.679857E1,2.627479E-2,3E0,2.5E0,1.1E1,4.148659E-2,2.5E0,7.573092E-2,1.0435619E-1,1.2846516E-2,1.127406E-1,3.7727803E-2,1.20779715E-1,1.51E0,1.2172454E-1,6.179721E-2,1.5E0,9.01347E-2,1.1E1,5.2036673E-2,3.3868916E-2,8.239578E-2,2E0,6.414628E-4,1.15475856E-1,2.6638918E1,8.575603E-2,-0E0,6.2131073E-2,-0E0,1.17430344E-1,7.8E1,8.3588034E-2,4.8794813E-2,7.620292E-2,-0E0,9.143992E-2,2.9069668E-2],"split_indices":[29,1,33,12,2,13,20,6,0,9,6,9,8,29,29,33,10,32,32,0,30,1,29,0,0,0,0,32,0,27,0,20,35,28,0,0,0,27,0,10,0,36,0,32,0,33,0,0,20,0,37,0,0,0,1,31,0,36,35,38,0,30,0,0,0,0,0,0,33,0,0,33,0,29,0,0,0,1,0,0,28,0,0,0,0,0,27,0,0,0,0,0,0],"split_type":[0,0,0,0,0,0,0,0,0,0,0,0,0,0,0,0,0,0,0,0,0,0,0,0,0,0,0,0,0,0,0,0,0,0,0,0,0,0,0,0,0,0,0,0,0,0,0,0,0,0,0,0,0,0,0,0,0,0,0,0,0,0,0,0,0,0,0,0,0,0,0,0,0,0,0,0,0,0,0,0,0,0,0,0,0,0,0,0,0,0,0,0,0],"sum_hessian":[8.0984683E3,5.300742E3,2.797726E3,4.2882227E3,1.01251953E3,1.7374442E3,1.0602819E3,3.9343652E3,3.5385736E2,5.936324E2,4.1888715E2,1.3296444E3,4.0779987E2,6.2585016E2,4.3443167E2,2.54973E3,1.3846351E3,5.0733E2,8.630241E1,1.6492863E2,2.539585E2,9.26783E2,4.028614E2,3.9291934E2,1.4880524E1,2.9983142E2,3.260187E2,1.7861989E2,2.558118E2,2.3562036E3,1.9352644E2,1.2975165E3,8.711872E1,5.0133E2,6E0,8.130241E1,5E0,1.880634E2,6.58951E1,8.1391235E2,1.12870636E2,2.7464215E2,1.2821925E2,2.0707143E2,9.276001E1,3.501184E1,1.4360805E2,2.2762847E3,7.991887E1,1.0873798E3,2.1013661E2,1.3E1,7.411872E1,4.4259754E1,4.5707022E2,1.710634E2,1.7E1,4.5194766E2,3.619647E2,2.3402365E2,4.06185E1,8.881611E1,1.1825531E2,2.801184E1,7E0,6.622178E1,1.3697096E1,1.06418625E2,1.03717995E2,4.4133072E2,1.5739514E1,6.684609E1,1.042173E2,4.2233426E2,2.9613409E1,2.3E1,3.389647E2,2.2902365E2,5E0,6.9274025E1,1.9542082E1,9.623073E1,7.4872656E0,6.1846096E1,5E0,2.9516934E2,1.271649E2,1.9013905E2,3.8884598E1,1.4542082E1,5E0,1.1466136E2,1.2503537E1],"tree_param":{"num_deleted":"0","num_feature":"39","num_nodes":"93","size_leaf_vector":"1"}},{"base_weights":[2.0865529E0,2.4375393E0,1.5930451E0,2.5372305E0,1.9553349E0,1.9373829E0,1.2706677E0,2.6572707E0,2.3785882E0,2.282383E0,1.6469492E0,2.1210272E0,1.3495332E0,1.5080901E0,9.8616576E-1,1.4135598E-1,2.5569086E0,2.442338E0,1.9993168E0,1.1523601E-1,2.532709E-2,1.8640591E0,1.2856872E0,1.9391702E0,2.4152696E0,1.6649573E0,4.0223442E-2,1.645727E0,1.0739893E0,1.0985485E0,3.3303257E-2,1.3554089E-1,2.3778672E0,1.2261855E-1,4.745585E-2,-0E0,1.0224874E-1,1.9408406E0,3.687189E-2,9.996206E-1,7.951859E-2,2.1972194E0,1.6740893E0,1.2384625E-1,7.8113005E-2,4.792947E-2,1.8311682E0,1.0718141E-1,1.5431194E0,7.23469E-2,4.2047683E-2,1.3432033E0,4.4339962E-2,2.1359696E0,1.2612863E-1,1.0594066E-1,1.5106926E0,6.818002E-2,2.5512192E-2,1.14931084E-1,1.536898E0,3.0986998E-2,1.7545776E0,1.9220496E0,3.4464546E-2,8.904632E-2,1.3799285E0,7.6132156E-2,5.1332682E-2,1.1770866E-1,1.6922446E0,8.2544655E-2,1.7008482E-2,-0E0,8.3843395E-2,9.717949E-2,7.202109E-2,1.0047281E-1,4.538732E-2,4.712616E-2,7.60187E-2,8.875926E-2,-0E0],"categories":[],"categories_nodes":[],"categories_segments":[],"categories_sizes":[],"default_left":[0,0,0,0,0,0,0,0,0,0,0,0,0,0,0,0,0,0,0,0,0,0,0,0,0,0,0,0,0,0,0,0,0,0,0,0,0,0,0,0,0,0,0,0,0,0,0,0,0,0,0,0,0,0,0,0,0,0,0,0,0,0,0,0,0,0,0,0,0,0,0,0,0,0,0,0,0,0,0,0,0,0,0],"id":11,"left_children":[1,3,5,7,9,11,13,15,17,19,21,23,25,27,29,-1,31,33,35,-1,-1,37,39,41,43,45,-1,47,49,51,-1,-1,53,-1,-1,-1,-1,55,-1,57,-1,59,61,-1,-1,-1,63,-1,65,-1,-1,67,-1,69,-1,-1,71,-1,-1,-1,73,-1,75,77,-1,-1,79,-1,-1,-1,81,-1,-1,-1,-1,-1,-1,-1,-1,-1,-1,-1,-1],"loss_changes":[1.3963086E3,2.1371484E2,3.676953E2,5.7052734E1,7.1605225E1,1.6695947E2,1.1313599E2,1.7885742E1,2.720996E1,1.0438843E1,2.5986206E1,5.2552246E1,6.2798645E1,5.059204E1,2.5782776E1,0E0,2.103418E1,1.3744141E1,2.2877197E1,0E0,0E0,1.729834E1,9.0963745E0,4.1969482E1,1.2563232E1,2.2734985E1,0E0,2.6322266E1,1.5837128E1,2.6030212E1,0E0,0E0,8.14917E0,0E0,0E0,0E0,0E0,8.734009E0,0E0,1.3664169E1,0E0,1.4928711E1,2.8881104E1,0E0,0E0,0E0,1.5167847E1,0E0,1.5332886E1,0E0,0E0,9.566742E0,0E0,1.3917114E1,0E0,0E0,1.0071915E1,0E0,0E0,0E0,1.2346298E1,0E0,1.2631836E1,9.429749E0,0E0,0E0,1.7345398E1,0E0,0E0,0E0,1.2114227E1,0E0,0E0,0E0,0E0,0E0,0E0,0E0,0E0,0E0,0E0,0E0,0E0],"parents":[2147483647,0,0,1,1,2,2,3,3,4,4,5,5,6,6,7,7,8,8,9,9,10,10,11,11,12,12,13,13,14,14,16,16,17,17,18,18,21,21,22,22,23,23,24,24,25,25,27,27,28,28,29,29,32,32,37,37,39,39,41,41,42,42,46,46,48,48,51,51,53,53,56,56,60,60,62,62,63,63,66,66,70,70],"right_children":[2,4,6,8,10,12,14,16,18,20,22,24,26,28,30,-1,32,34,36,-1,-1,38,40,42,44,46,-1,48,50,52,-1,-1,54,-1,-1,-1,-1,56,-1,58,-1,60,62,-1,-1,-1,64,-1,66,-1,-1,68,-1,70,-1,-1,72,-1,-1,-1,74,-1,76,78,-1,-1,80,-1,-1,-1,82,-1,-1,-1,-1,-1,-1,-1,-1,-1,-1,-1,-1],"split_conditions":[5.1E0,1E0,1E0,6.4E1,1.1E0,1E0,1.1043773E0,1E0,1.53E0,1.1609E4,1.493E2,1E0,1.19E0,1E0,3.91E0,1.4135598E-1,2.6E0,1E0,2.4E0,1.1523601E-1,2.532709E-2,9.7E0,3.3274925E0,7.9347086E0,1.95E0,3.12E0,4.0223442E-2,1E0,9E0,9.9E0,3.3303257E-2,1.3554089E-1,2.4386526E1,1.2261855E-1,4.745585E-2,-0E0,1.0224874E-1,3.6E0,3.687189E-2,1E0,7.951859E-2,1E0,2.47E0,1.2384625E-1,7.8113005E-2,4.792947E-2,7.7342104E3,1.0718141E-1,8.744411E0,7.23469E-2,4.2047683E-2,1E0,4.4339962E-2,7E1,1.2612863E-1,1.0594066E-1,1.43E0,6.818002E-2,2.5512192E-2,1.14931084E-1,7.3E-1,3.0986998E-2,3.24E2,1.67E0,3.4464546E-2,8.904632E-2,1.19E1,7.6132156E-2,5.1332682E-2,1.1770866E-1,2.4005487E1,8.2544655E-2,1.7008482E-2,-0E0,8.3843395E-2,9.717949E-2,7.202109E-2,1.0047281E-1,4.538732E-2,4.712616E-2,7.60187E-2,8.875926E-2,-0E0],"split_indices":[29,1,1,27,30,20,33,11,36,32,32,13,33,20,30,0,29,8,35,0,0,30,35,29,30,35,0,6,29,29,0,0,28,0,0,0,0,29,0,7,0,10,35,0,0,0,32,0,29,0,0,0,0,32,0,0,33,0,0,0,36,0,32,36,0,0,34,0,0,0,28,0,0,0,0,0,0,0,0,0,0,0,0],"split_type":[0,0,0,0,0,0,0,0,0,0,0,0,0,0,0,0,0,0,0,0,0,0,0,0,0,0,0,0,0,0,0,0,0,0,0,0,0,0,0,0,0,0,0,0,0,0,0,0,0,0,0,0,0,0,0,0,0,0,0,0,0,0,0,0,0,0,0,0,0,0,0,0,0,0,0,0,0,0,0,0,0,0,0],"sum_hessian":[8.127261E3,4.743642E3,3.3836194E3,3.9221733E3,8.2146875E2,1.6297397E3,1.7538796E3,2.211208E3,1.7109653E3,3.908846E2,4.3058414E2,1.2365304E3,3.9320935E2,9.494383E2,8.044414E2,7.9740607E2,1.4138019E3,1.4531897E3,2.5777563E2,3.848846E2,6E0,2.620253E2,1.685588E2,7.756921E2,4.6083835E2,2.453079E2,1.4790144E2,7.148884E2,2.3454985E2,5.894916E2,2.1494983E2,7.420493E2,6.7175256E2,1.4415497E3,1.1639946E1,6E0,2.5177563E2,2.4312296E2,1.8902365E1,9.304405E1,7.5514755E1,3.8376096E2,3.9193112E2,4.2513025E2,3.570809E1,5.045097E1,1.9485693E2,1.1368852E2,6.011999E2,8.454122E1,1.5000864E2,2.6634622E2,3.2314536E2,2.6582208E2,4.0593045E2,1.6477248E2,7.835048E1,5.0137493E1,4.290656E1,3.2705945E2,5.670152E1,2.9912937E1,3.620182E2,1.7841476E2,1.6442171E1,2.3410318E2,3.6709674E2,1.6310754E2,1.0323867E2,1.7091122E2,9.491086E1,6.847386E1,9.8766165E0,5E0,5.170152E1,2.1756409E2,1.4445412E2,1.6154558E2,1.6869177E1,9.4700966E1,2.7239575E2,8.991086E1,5E0],"tree_param":{"num_deleted":"0","num_feature":"39","num_nodes":"83","size_leaf_vector":"1"}},{"base_weights":[1.9999349E0,2.3546002E0,1.5419834E0,2.4557228E0,1.8390334E0,2.0874343E0,1.3502555E0,2.4099767E0,1.448821E-1,2.0990381E0,1.4541771E0,2.2436414E0,1.4435166E0,1.5274547E0,9.5247895E-1,2.2630746E0,2.5362966E0,2.1705134E0,5.687345E-2,1.620658E0,5.2770104E-2,2.264021E0,1.9607713E-2,1.7498871E0,4.2173203E-2,1.8156799E0,1.3048611E0,1.1066793E0,3.2557096E-2,1.14790216E-1,8.076816E-2,2.5518334E0,8.151769E-2,1.1274033E-1,1.5963093E0,8.332373E-2,1.1694132E-2,2.3240597E0,7.854479E-2,4.8633374E-2,2.0665777E0,6.430182E-1,1.8646241E0,1.4541566E0,8.2988405E-1,1.3138224E0,4.0776994E-2,1.2897693E-1,1.00463726E-1,8.941703E-2,2.1794112E-2,2.3556657E0,6.00198E-2,1.1610462E-1,5.0812908E-2,-1.1883015E-2,4.7930073E-2,2.0565693E0,8.000668E-2,1.5976712E0,5.843823E-2,6.5231845E-2,2.6152385E-2,1.5834371E0,4.7724687E-2,1.20313585E-1,8.475663E-2,1.0764952E-1,1.4824922E0,9.132125E-2,7.100465E-2,6.642457E-2,2.0406952E0,8.098623E-2,1.2729538E-2,2.1954017E0,2.2302143E-2,1.2707983E-1,4.8899155E-2],"categories":[],"categories_nodes":[],"categories_segments":[],"categories_sizes":[],"default_left":[0,0,0,0,0,0,0,0,0,0,0,0,0,0,0,0,0,0,0,0,0,0,0,0,0,0,0,0,0,0,0,0,0,0,0,0,0,0,0,0,0,0,0,0,0,0,0,0,0,0,0,0,0,0,0,0,0,0,0,0,0,0,0,0,0,0,0,0,0,0,0,0,0,0,0,0,0,0,0],"id":12,"left_children":[1,3,5,7,9,11,13,15,-1,17,19,21,23,25,27,29,31,33,-1,35,-1,37,-1,39,-1,41,43,45,-1,-1,-1,47,-1,-1,49,-1,-1,51,-1,-1,53,55,57,59,61,63,-1,-1,-1,-1,-1,65,-1,-1,-1,-1,-1,67,-1,69,-1,-1,-1,71,-1,-1,-1,-1,73,-1,-1,-1,75,-1,-1,77,-1,-1,-1],"loss_changes":[1.294373E3,2.2257422E2,3.5853906E2,5.704492E1,6.5545166E1,8.1289795E1,1.7843555E2,4.7466797E1,0E0,2.2164429E1,1.4555298E1,2.299414E1,2.8348114E1,1.0757178E2,3.4475586E1,2.2810547E1,1.3208008E1,8.731079E0,0E0,1.0914429E1,0E0,1.8682617E1,0E0,2.2252045E1,0E0,3.9687256E1,6.793347E1,2.7768127E1,0E0,0E0,0E0,1.1970703E1,0E0,0E0,9.739014E0,0E0,0E0,1.4059326E1,0E0,0E0,1.3926239E1,1.0904044E1,2.753003E1,2.5242554E1,3.340155E1,2.4001526E1,0E0,0E0,0E0,0E0,0E0,8.946777E0,0E0,0E0,0E0,0E0,0E0,1.3333984E1,0E0,1.219873E1,0E0,0E0,0E0,1.0992645E1,0E0,0E0,0E0,0E0,8.857803E0,0E0,0E0,0E0,9.12056E0,0E0,0E0,1.2420303E1,0E0,0E0,0E0],"parents":[2147483647,0,0,1,1,2,2,3,3,4,4,5,5,6,6,7,7,9,9,10,10,11,11,12,12,13,13,14,14,15,15,16,16,17,17,19,19,21,21,23,23,25,25,26,26,27,27,31,31,34,34,37,37,40,40,41,41,42,42,43,43,44,44,45,45,51,51,57,57,59,59,63,63,68,68,72,72,75,75],"right_children":[2,4,6,8,10,12,14,16,-1,18,20,22,24,26,28,30,32,34,-1,36,-1,38,-1,40,-1,42,44,46,-1,-1,-1,48,-1,-1,50,-1,-1,52,-1,-1,54,56,58,60,62,64,-1,-1,-1,-1,-1,66,-1,-1,-1,-1,-1,68,-1,70,-1,-1,-1,72,-1,-1,-1,-1,74,-1,-1,-1,76,-1,-1,78,-1,-1,-1],"split_conditions":[5E0,1E0,1E0,1E0,1E0,1E0,1E0,3.8302975E0,1.448821E-1,1E0,1.493E2,3E0,1.18E0,1E0,1.4E0,9E0,1.26E0,1.3026486E3,5.687345E-2,3.2912014E1,5.2770104E-2,1.24E0,1.9607713E-2,3.3657558E0,4.2173203E-2,2.4E0,1E0,1.73E0,3.2557096E-2,1.14790216E-1,8.076816E-2,2.4764884E0,8.151769E-2,1.1274033E-1,1E0,8.332373E-2,1.1694132E-2,1E0,7.854479E-2,4.8633374E-2,8E1,5E1,2.3269128E2,1E0,1E0,1E0,4.0776994E-2,1.2897693E-1,1.00463726E-1,8.941703E-2,2.1794112E-2,1.89E0,6.00198E-2,1.1610462E-1,5.0812908E-2,-1.1883015E-2,4.7930073E-2,1.28E1,8.000668E-2,8.744411E0,5.843823E-2,6.5231845E-2,2.6152385E-2,6.1E1,4.7724687E-2,1.20313585E-1,8.475663E-2,1.0764952E-1,1.19089325E2,9.132125E-2,7.100465E-2,6.642457E-2,7.8E1,8.098623E-2,1.2729538E-2,6.4E2,2.2302143E-2,1.2707983E-1,4.8899155E-2],"split_indices":[29,1,6,12,2,20,20,35,0,8,32,1,33,1,36,38,33,32,0,28,0,33,0,35,0,35,0,30,0,0,0,36,0,0,21,0,0,8,0,0,27,27,32,9,7,9,0,0,0,0,0,30,0,0,0,0,0,29,0,29,0,0,0,31,0,0,0,0,32,0,0,0,27,0,0,32,0,0,0],"split_type":[0,0,0,0,0,0,0,0,0,0,0,0,0,0,0,0,0,0,0,0,0,0,0,0,0,0,0,0,0,0,0,0,0,0,0,0,0,0,0,0,0,0,0,0,0,0,0,0,0,0,0,0,0,0,0,0,0,0,0,0,0,0,0,0,0,0,0,0,0,0,0,0,0,0,0,0,0,0,0],"sum_hessian":[8.036022E3,4.522815E3,3.513207E3,3.7732659E3,7.4954926E2,9.07227E2,2.60598E3,3.433056E3,3.4020993E2,4.4046762E2,3.0908167E2,7.2486194E2,1.8236504E2,1.797186E3,8.0879407E2,1.6083718E3,1.8246841E3,4.0668353E2,3.3784084E1,2.119576E2,9.712406E1,7.159952E2,8.866752E0,1.1708543E2,6.52796E1,7.749442E2,1.0222418E3,5.292844E2,2.7950958E2,1.5246943E3,8.36775E1,1.7892614E3,3.54227E1,3.4800162E2,5.8681896E1,2.0409033E2,7.8672614E0,6.5326056E2,6.273464E1,3.7168106E1,7.991732E1,3.3E1,7.419442E2,7.730325E2,2.4920934E2,3.0314178E2,2.2614267E2,1.6934365E3,9.582488E1,4.8681896E1,1E1,6.3239026E2,2.0870312E1,6.156616E1,1.8351166E1,8E0,2.5E1,4.198907E2,3.2205353E2,5.0592078E2,2.671117E2,9.400194E1,1.552074E2,1.6770876E2,1.3543304E2,5.810722E2,5.1318035E1,3.533071E2,6.6583595E1,2.1052429E2,2.953965E2,1.1409331E2,5.3615444E1,5.85836E1,8E0,4.7615444E1,6E0,3.4739765E1,1.2875679E1],"tree_param":{"num_deleted":"0","num_feature":"39","num_nodes":"79","size_leaf_vector":"1"}},{"base_weights":[1.8990363E0,2.2396398E0,1.4334694E0,2.3061264E0,1.5663195E0,1.610776E0,9.425435E-1,2.263676E0,1.3899754E-1,8.710175E-2,4.8462465E-2,1.7898912E0,1.1501346E0,1.0079715E0,2.3450345E-2,2.3491592E0,1.9158952E0,2.13816E0,1.6048055E0,1.3970214E0,3.871415E-2,1.0685222E0,6.352297E-1,1.2267827E-1,2.1725795E0,2.0212953E0,1.4161694E0,2.3325443E0,1.8106605E0,1.7987648E0,1.3776523E0,1.4360849E0,3.3866407E-3,6.709715E-2,9.413561E-1,4.0670693E-2,8.766754E-3,2.1920536E0,3.747708E-2,1.0539579E-1,7.947414E-2,-0E0,1.4861147E0,1.6281242E-2,1.1800914E-1,1.8782958E0,3.071397E-2,1.8348439E0,2.615424E-2,1.0170654E0,1.5384524E0,8.378258E-2,1.2281874E0,4.953626E-2,2.237535E-2,1.1476171E-1,9.9659435E-2,7.969284E-2,1.1217323E-2,1.9392568E0,2.9077137E-2,1.855826E0,-0E0,5.6884926E-2,1.6479105E-2,8.2016416E-2,1.0452554E0,4.361686E-2,1.416877E0,1.0294282E-1,6.342411E-2,9.990475E-2,1.5755674E0,7.512154E-2,2.1974672E-2,-0E0,7.359775E-2,8.3644055E-2,4.385284E-2],"categories":[],"categories_nodes":[],"categories_segments":[],"categories_sizes":[],"default_left":[0,0,0,0,0,0,0,0,0,0,0,0,0,0,0,0,0,0,0,0,0,0,0,0,0,0,0,0,0,0,0,0,0,0,0,0,0,0,0,0,0,0,0,0,0,0,0,0,0,0,0,0,0,0,0,0,0,0,0,0,0,0,0,0,0,0,0,0,0,0,0,0,0,0,0,0,0,0,0],"id":13,"left_children":[1,3,5,7,9,11,13,15,-1,-1,-1,17,19,21,-1,23,25,27,29,31,-1,33,35,-1,37,39,41,43,45,47,49,51,-1,-1,53,-1,-1,55,-1,-1,-1,-1,57,-1,-1,59,-1,61,-1,63,65,-1,67,-1,-1,-1,-1,-1,-1,69,-1,71,-1,-1,-1,-1,73,-1,75,-1,-1,-1,77,-1,-1,-1,-1,-1,-1],"loss_changes":[1.2777656E3,1.986543E2,2.9367676E2,6.80332E1,3.888501E1,2.0098926E2,2.6037231E1,1.0331055E2,0E0,0E0,0E0,1.06092285E2,6.183789E1,1.5072754E1,0E0,4.253711E1,3.2280518E1,2.6902588E1,4.4387207E1,2.0438416E1,0E0,1.9040344E1,8.520245E0,0E0,2.665039E1,1.3668701E1,1.5609711E1,1.6879395E1,1.47752075E1,2.4906738E1,2.6782959E1,1.3565186E1,0E0,0E0,9.314209E0,0E0,0E0,1.054248E1,0E0,0E0,0E0,0E0,1.6374786E1,0E0,0E0,1.31848755E1,0E0,2.3522705E1,0E0,1.2753571E1,1.3051025E1,0E0,1.0749664E1,0E0,0E0,0E0,0E0,0E0,0E0,8.730957E0,0E0,1.4375732E1,0E0,0E0,0E0,0E0,1.6814606E1,0E0,1.0217407E1,0E0,0E0,0E0,9.237183E0,0E0,0E0,0E0,0E0,0E0,0E0],"parents":[2147483647,0,0,1,1,2,2,3,3,4,4,5,5,6,6,7,7,11,11,12,12,13,13,15,15,16,16,17,17,18,18,19,19,21,21,22,22,24,24,25,25,26,26,27,27,28,28,29,29,30,30,31,31,34,34,37,37,42,42,45,45,47,47,49,49,50,50,52,52,59,59,61,61,66,66,68,68,72,72],"right_children":[2,4,6,8,10,12,14,16,-1,-1,-1,18,20,22,-1,24,26,28,30,32,-1,34,36,-1,38,40,42,44,46,48,50,52,-1,-1,54,-1,-1,56,-1,-1,-1,-1,58,-1,-1,60,-1,62,-1,64,66,-1,68,-1,-1,-1,-1,-1,-1,70,-1,72,-1,-1,-1,-1,74,-1,76,-1,-1,-1,78,-1,-1,-1,-1,-1,-1],"split_conditions":[5.1E0,1E0,1E0,1E0,1E0,1.73E0,2E0,1E0,1.3899754E-1,8.710175E-2,4.8462465E-2,1E0,1E0,2E0,2.3450345E-2,3E0,1E0,1E0,9.3E0,6.4287574E4,3.871415E-2,1.0409055E0,1.23E0,1.2267827E-1,1E0,3.24E2,6.4E-1,1.7527817E1,1.31E0,3.298969E4,1.1935335E1,8.4E0,3.3866407E-3,6.709715E-2,1.6428514E4,4.0670693E-2,8.766754E-3,1E0,3.747708E-2,1.0539579E-1,7.947414E-2,-0E0,2.14E0,1.6281242E-2,1.1800914E-1,2E0,3.071397E-2,8.8E1,2.615424E-2,2.1E0,1E0,8.378258E-2,2.3046875E1,4.953626E-2,2.237535E-2,1.1476171E-1,9.9659435E-2,7.969284E-2,1.1217323E-2,1.11E1,2.9077137E-2,1E0,-0E0,5.6884926E-2,1.6479105E-2,8.2016416E-2,1.08E0,4.361686E-2,4E1,1.0294282E-1,6.342411E-2,9.990475E-2,7.5E1,7.512154E-2,2.1974672E-2,-0E0,7.359775E-2,8.3644055E-2,4.385284E-2],"split_indices":[29,10,9,12,20,30,2,2,0,0,0,6,20,1,0,29,20,11,29,32,0,33,36,0,8,32,30,28,33,32,34,29,0,0,32,0,0,6,0,0,0,0,33,0,0,1,0,27,0,36,20,0,28,0,0,0,0,0,0,29,0,10,0,0,0,0,36,0,27,0,0,0,31,0,0,0,0,0,0],"split_type":[0,0,0,0,0,0,0,0,0,0,0,0,0,0,0,0,0,0,0,0,0,0,0,0,0,0,0,0,0,0,0,0,0,0,0,0,0,0,0,0,0,0,0,0,0,0,0,0,0,0,0,0,0,0,0,0,0,0,0,0,0,0,0,0,0,0,0,0,0,0,0,0,0,0,0,0,0,0,0],"sum_hessian":[8.1195137E3,4.6834136E3,3.4361E3,4.256748E3,4.2666553E2,2.5195288E3,9.165713E2,3.9192815E3,3.3746637E2,3.2539334E2,1.0127219E2,1.8084075E3,7.111214E2,8.0146484E2,1.15106445E2,3.1344575E3,7.8482416E2,6.1835876E2,1.1900488E3,4.2430936E2,2.86812E2,6.8394415E2,1.175207E2,1.9500204E3,1.184437E3,6.41443E2,1.4338115E2,3.7844073E2,2.3991801E2,6.320877E2,5.5796106E2,4.1130936E2,1.3E1,2.0855656E2,4.7538757E2,8.202765E1,3.5493053E1,1.1666877E3,1.7749346E1,5.258749E2,1.1556815E2,6.2950335E0,1.370861E2,5.9797015E0,3.7246103E2,2.2521034E2,1.4707667E1,6.130877E2,1.9E1,1.7851596E2,3.794451E2,1.8230428E2,2.2900507E2,4.2851285E2,4.687474E1,7.509478E2,4.1573987E2,1.2508611E2,1.2E1,2.1341548E2,1.17948675E1,6.060877E2,7E0,1.4951596E2,2.9E1,3.0894855E2,7.049654E1,8.508638E1,1.4391869E2,1.7634372E2,3.7071766E1,3.915144E2,2.1457333E2,3.7547638E1,3.29489E1,6E0,1.3791869E2,1.8462996E2,2.9943369E1],"tree_param":{"num_deleted":"0","num_feature":"39","num_nodes":"79","size_leaf_vector":"1"}},{"base_weights":[1.811407E0,2.0897977E0,1.2863923E0,2.207864E0,1.5872966E0,1.1500607E0,1.8547345E0,2.226372E0,1.0574496E0,1.7140794E0,9.616502E-1,1.349523E0,8.983628E-1,1.9807305E0,9.567653E-1,2.1862063E0,1.3246706E-1,7.154726E-2,2.7616052E-2,1.9196681E0,1.4093225E0,1.3923942E-2,5.762993E-2,1.5059319E0,9.977733E-1,1.1947145E0,7.8048927E-1,1.05377495E-1,1.4399667E0,1.2023212E0,9.504708E-3,2.040141E0,2.323226E0,1.9880989E0,6.659182E-2,1.5112587E0,6.8973714E-1,1.6893352E0,1.3051159E0,5.8111586E-2,3.5369962E-2,1.395734E0,8.377033E-1,8.776153E-1,2.4373425E-2,3.8227167E-2,8.221733E-2,1.4102427E0,3.9880034E-3,2.119228E0,1.7427005E0,2.3422785E0,7.106288E-2,6.176106E-2,2.0524006E0,1.6763232E0,5.659997E-2,6.6170655E-2,1.1512886E-2,1.1185226E0,1.7988487E0,7.329566E-2,5.1237214E-2,7.586688E-2,3.2033425E-2,4.8557963E-2,8.455665E-3,1.1040509E0,3.7248116E-2,8.407854E-2,1.5275913E-2,1.0773557E-1,1.5280545E0,8.915787E-2,2.2989508E-2,1.22449175E-1,2.1958694E0,1.0374756E-1,2.441282E-2,9.420364E-2,6.100982E-2,6.578975E-2,1.6009482E-2,1.0629052E-1,8.087976E-2,6.370383E-2,3.123394E-2,8.946637E-2,6.3445807E-1,1.1155082E-1,7.037224E-2,6.697331E-2,-9.4636943E-4],"categories":[],"categories_nodes":[],"categories_segments":[],"categories_sizes":[],"default_left":[0,0,0,0,0,0,0,0,0,0,0,0,0,0,0,0,0,0,0,0,0,0,0,0,0,0,0,0,0,0,0,0,0,0,0,0,0,0,0,0,0,0,0,0,0,0,0,0,0,0,0,0,0,0,0,0,0,0,0,0,0,0,0,0,0,0,0,0,0,0,0,0,0,0,0,0,0,0,0,0,0,0,0,0,0,0,0,0,0,0,0,0,0],"id":14,"left_children":[1,3,5,7,9,11,13,15,17,19,21,23,25,27,29,31,-1,-1,-1,33,35,-1,-1,37,39,41,43,-1,45,47,-1,49,51,53,-1,55,57,59,61,-1,-1,63,65,67,-1,-1,-1,69,-1,71,73,75,-1,-1,77,79,-1,-1,-1,81,83,-1,-1,-1,-1,-1,-1,85,-1,-1,-1,-1,87,-1,-1,-1,89,-1,-1,-1,-1,-1,-1,-1,-1,-1,-1,-1,91,-1,-1,-1,-1],"loss_changes":[1.1615684E3,2.9937305E2,2.082124E2,8.200391E1,7.36189E1,1.08270996E2,5.3616943E1,5.4203125E1,9.942184E0,4.3291748E1,2.075026E1,6.320044E1,3.118988E1,2.2264282E1,1.1417892E1,6.2416016E1,0E0,0E0,0E0,1.1031738E1,2.0948975E1,0E0,0E0,2.4217896E1,1.5219849E1,1.5463837E1,1.8430603E1,0E0,8.34613E0,1.0425331E1,0E0,3.2603516E1,2.3054688E1,1.2551758E1,0E0,1.2079468E1,1.1691364E1,2.0523071E1,1.3495422E1,0E0,0E0,1.1857391E1,8.111008E0,1.2723846E1,0E0,0E0,0E0,9.878548E0,0E0,2.0374023E1,1.716211E1,1.4337891E1,0E0,0E0,9.296509E0,1.1433899E1,0E0,0E0,0E0,9.723862E0,1.0943237E1,0E0,0E0,0E0,0E0,0E0,0E0,1.2201035E1,0E0,0E0,0E0,0E0,1.659436E1,0E0,0E0,0E0,1.2964355E1,0E0,0E0,0E0,0E0,0E0,0E0,0E0,0E0,0E0,0E0,0E0,1.2700021E1,0E0,0E0,0E0,0E0],"parents":[2147483647,0,0,1,1,2,2,3,3,4,4,5,5,6,6,7,7,8,8,9,9,10,10,11,11,12,12,13,13,14,14,15,15,19,19,20,20,23,23,24,24,25,25,26,26,28,28,29,29,31,31,32,32,33,33,35,35,36,36,37,37,38,38,41,41,42,42,43,43,47,47,49,49,50,50,51,51,54,54,55,55,59,59,60,60,67,67,72,72,76,76,88,88],"right_children":[2,4,6,8,10,12,14,16,18,20,22,24,26,28,30,32,-1,-1,-1,34,36,-1,-1,38,40,42,44,-1,46,48,-1,50,52,54,-1,56,58,60,62,-1,-1,64,66,68,-1,-1,-1,70,-1,72,74,76,-1,-1,78,80,-1,-1,-1,82,84,-1,-1,-1,-1,-1,-1,86,-1,-1,-1,-1,88,-1,-1,-1,90,-1,-1,-1,-1,-1,-1,-1,-1,-1,-1,-1,92,-1,-1,-1,-1],"split_conditions":[6.1E0,1E0,1E0,1E0,1E0,1.48E0,1E0,1E0,6.2E1,1E0,2.76E0,1E0,5.442434E1,1E0,1E0,3.835689E0,1.3246706E-1,7.154726E-2,2.7616052E-2,2.16E3,7.7E1,1.3923942E-2,5.762993E-2,1E0,1E0,1.21E0,2E0,1.05377495E-1,2.293975E1,1.42E1,9.504708E-3,2.3269128E2,1.26E0,1.9817677E1,6.659182E-2,1E0,1.33E0,2.0672218E1,5.4955715E1,5.8111586E-2,3.5369962E-2,3.9441314E0,7.4E1,1E0,2.4373425E-2,3.8227167E-2,8.221733E-2,1.21E0,3.9880034E-3,8E1,2E0,6.4E1,7.106288E-2,6.176106E-2,4E0,1E0,5.659997E-2,6.6170655E-2,1.1512886E-2,7.8E1,2.01E1,7.329566E-2,5.1237214E-2,7.586688E-2,3.2033425E-2,4.8557963E-2,8.455665E-3,1E0,3.7248116E-2,8.407854E-2,1.5275913E-2,1.0773557E-1,1E0,8.915787E-2,2.2989508E-2,1.22449175E-1,2.4764884E0,1.0374756E-1,2.441282E-2,9.420364E-2,6.100982E-2,6.578975E-2,1.6009482E-2,1.0629052E-1,8.087976E-2,6.370383E-2,3.123394E-2,8.946637E-2,1.01E0,1.1155082E-1,7.037224E-2,6.697331E-2,-9.4636943E-4],"split_indices":[29,1,13,9,9,30,9,12,27,2,35,9,32,22,22,35,0,0,0,32,27,0,0,1,20,33,2,0,28,34,0,32,33,28,0,20,30,28,31,0,0,35,27,10,0,0,0,33,0,27,2,27,0,0,1,7,0,0,0,27,32,0,0,0,0,0,0,21,0,0,0,0,20,0,0,0,36,0,0,0,0,0,0,0,0,0,0,0,36,0,0,0,0],"split_type":[0,0,0,0,0,0,0,0,0,0,0,0,0,0,0,0,0,0,0,0,0,0,0,0,0,0,0,0,0,0,0,0,0,0,0,0,0,0,0,0,0,0,0,0,0,0,0,0,0,0,0,0,0,0,0,0,0,0,0,0,0,0,0,0,0,0,0,0,0,0,0,0,0,0,0,0,0,0,0,0,0,0,0,0,0,0,0,0,0,0,0,0,0],"sum_hessian":[8.0051816E3,5.2261387E3,2.779043E3,4.22473E3,1.00140845E3,2.2476843E3,5.313588E2,4.1551416E3,6.958858E1,8.284511E2,1.7295735E2,1.246878E3,1.0008062E3,4.6288513E2,6.847368E1,3.8082104E3,3.469312E2,3.6761497E1,3.282708E1,4.864279E2,3.4202325E2,4E1,1.3295735E2,8.5658435E2,3.9029364E2,2.7717984E2,7.236264E2,3.6876004E2,9.412511E1,5.0013973E1,1.8459703E1,1.8621758E3,1.9460345E3,4.299152E2,5.65127E1,2.9643967E2,4.5583584E1,4.373509E2,4.1923346E2,2.4313882E2,1.4715483E2,1.718165E2,1.0536334E2,5.379216E2,1.8570482E2,2.5204638E1,6.892047E1,4.1013973E1,9E0,1.4587065E3,4.0346927E2,1.9015651E3,4.4469517E1,3.823315E1,3.9168204E2,1.999424E2,9.649726E1,1.6664467E1,2.8919117E1,7.548129E1,3.618696E2,2.5879004E2,1.6044342E2,1.4510396E2,2.6712538E1,8.583016E1,1.953318E1,1.9052153E2,3.4740005E2,3.1361767E1,9.652205E0,1.3695238E3,8.918266E1,3.8962308E2,1.384622E1,1.0777798E3,8.237853E2,3.8484125E2,6.8407936E0,1.3156543E2,6.8376976E1,5.848129E1,1.7E1,1.1943961E2,2.4243E2,1.366517E2,5.3869823E1,6.658922E1,2.2593445E1,7.8391187E2,3.9873447E1,1.0593445E1,1.2E1],"tree_param":{"num_deleted":"0","num_feature":"39","num_nodes":"93","size_leaf_vector":"1"}},{"base_weights":[1.7305641E0,1.9917408E0,1.2034001E0,2.075866E0,1.3442043E0,1.0803341E0,1.7491775E0,2.103171E0,1.2419599E0,1.5281559E0,3.70695E-2,1.2104741E0,7.4462515E-1,1.9131565E0,1.118757E0,2.1234803E0,6.0228884E-2,6.537122E-2,2.9622412E-3,9.378012E-2,1.3128722E0,1.4423859E0,1.0223533E0,8.145464E-1,1.4055336E-2,9.785383E-2,3.207346E-2,8.944509E-2,3.7475895E-2,2.037841E0,2.2800052E0,1.474629E0,6.77603E-1,1.7685341E0,1.2200685E0,1.142289E0,8.0813247E-1,1.0038075E0,3.2161683E-2,1.9902807E0,2.4548974E0,1.1527391E-1,1.6046973E0,7.592455E-2,1.6244903E-2,4.9809005E-2,1.0017007E-2,9.411921E-2,4.6988E-2,6.784282E-2,4.6118736E-2,1.3186504E0,4.8487876E-2,4.3383833E-2,2.2897222E-3,5.260523E-2,-1.5038158E-3,2.0415635E0,1.6202604E0,2.9834902E-2,1.2431468E-1,8.785779E-2,8.449057E-3,2.3397876E-2,6.8900645E-2,2.132978E0,1.9115479E0,8.345204E-2,3.2137018E-2,1.0701865E-1,2.3702119E-2,9.600663E-2,1.4091864E-2],"categories":[],"categories_nodes":[],"categories_segments":[],"categories_sizes":[],"default_left":[0,0,0,0,0,0,0,0,0,0,0,0,0,0,0,0,0,0,0,0,0,0,0,0,0,0,0,0,0,0,0,0,0,0,0,0,0,0,0,0,0,0,0,0,0,0,0,0,0,0,0,0,0,0,0,0,0,0,0,0,0,0,0,0,0,0,0,0,0,0,0,0,0],"id":15,"left_children":[1,3,5,7,9,11,13,15,17,19,-1,21,23,25,27,29,-1,-1,-1,-1,31,33,35,37,-1,-1,-1,-1,-1,39,41,43,45,47,49,51,53,55,-1,57,59,-1,61,-1,-1,-1,-1,-1,-1,-1,-1,63,-1,-1,-1,-1,-1,65,67,-1,-1,-1,-1,-1,-1,69,71,-1,-1,-1,-1,-1,-1],"loss_changes":[1.0834824E3,2.795371E2,1.7021924E2,9.805859E1,6.3777954E1,9.0391846E1,4.2274902E1,7.423047E1,1.0441742E1,2.6957275E1,0E0,6.2105225E1,1.819577E1,1.5924316E1,2.0784058E1,4.5720703E1,0E0,0E0,0E0,0E0,2.6464478E1,4.242871E1,1.8395203E1,1.4134277E1,0E0,0E0,0E0,0E0,0E0,4.298828E1,1.5256836E1,8.996185E0,8.351162E0,1.9281128E1,1.216333E1,1.1764343E1,1.3525604E1,1.3260834E1,0E0,3.9086914E1,1.0547607E1,0E0,1.1520264E1,0E0,0E0,0E0,0E0,0E0,0E0,0E0,0E0,1.0071228E1,0E0,0E0,0E0,0E0,0E0,1.4837891E1,1.1217712E1,0E0,0E0,0E0,0E0,0E0,0E0,1.1474609E1,1.0187256E1,0E0,0E0,0E0,0E0,0E0,0E0],"parents":[2147483647,0,0,1,1,2,2,3,3,4,4,5,5,6,6,7,7,8,8,9,9,11,11,12,12,13,13,14,14,15,15,20,20,21,21,22,22,23,23,29,29,30,30,31,31,32,32,33,33,34,34,35,35,36,36,37,37,39,39,40,40,42,42,51,51,57,57,58,58,65,65,66,66],"right_children":[2,4,6,8,10,12,14,16,18,20,-1,22,24,26,28,30,-1,-1,-1,-1,32,34,36,38,-1,-1,-1,-1,-1,40,42,44,46,48,50,52,54,56,-1,58,60,-1,62,-1,-1,-1,-1,-1,-1,-1,-1,64,-1,-1,-1,-1,-1,66,68,-1,-1,-1,-1,-1,-1,70,72,-1,-1,-1,-1,-1,-1],"split_conditions":[6.4E0,1E0,1E0,2E0,1E0,8E0,1.1043773E0,1E0,2.1E0,1E0,3.70695E-2,1.4111612E2,1.8816E4,2E0,1E0,3.9485164E0,6.0228884E-2,6.537122E-2,2.9622412E-3,9.378012E-2,1E0,9.1E0,1E0,1E0,1.4055336E-2,9.785383E-2,3.207346E-2,8.944509E-2,3.7475895E-2,1E0,8.1E1,7.4E0,6.3E1,2E0,1E0,1.1E0,8.1E1,4.1E0,3.2161683E-2,2.36E0,1.8442545E1,1.1527391E-1,5E0,7.592455E-2,1.6244903E-2,4.9809005E-2,1.0017007E-2,9.411921E-2,4.6988E-2,6.784282E-2,4.6118736E-2,1.8974531E1,4.8487876E-2,4.3383833E-2,2.2897222E-3,5.260523E-2,-1.5038158E-3,1E0,8E1,2.9834902E-2,1.2431468E-1,8.785779E-2,8.449057E-3,2.3397876E-2,6.8900645E-2,3.6981653E2,1.95E0,8.345204E-2,3.2137018E-2,1.0701865E-1,2.3702119E-2,9.600663E-2,1.4091864E-2],"split_indices":[29,10,13,1,20,38,33,9,33,6,0,32,32,1,7,35,0,0,0,0,0,29,9,20,0,0,0,0,0,12,27,36,27,1,20,33,27,36,0,30,28,0,29,0,0,0,0,0,0,0,0,28,0,0,0,0,0,6,27,0,0,0,0,0,0,31,33,0,0,0,0,0,0],"split_type":[0,0,0,0,0,0,0,0,0,0,0,0,0,0,0,0,0,0,0,0,0,0,0,0,0,0,0,0,0,0,0,0,0,0,0,0,0,0,0,0,0,0,0,0,0,0,0,0,0,0,0,0,0,0,0,0,0,0,0,0,0,0,0,0,0,0,0,0,0,0,0,0,0],"sum_hessian":[7.9254414E3,5.294765E3,2.6306763E3,4.6807114E3,6.140536E2,2.1529937E3,4.7768262E2,4.528198E3,1.5251317E2,4.6686005E2,1.4719351E2,1.5456288E3,6.073649E2,3.745916E2,1.03090996E2,4.4243633E3,1.0383497E2,1.4351317E2,9E0,1.7092867E2,2.959314E2,6.8389075E2,8.61738E2,5.245632E2,8.280179E1,3.6028424E2,1.4307365E1,3.2929028E1,7.0161964E1,2.88198E3,1.5423834E3,2.3251108E2,6.3420315E1,2.697497E2,4.1414108E2,5.43895E2,3.1784293E2,2.4183488E2,2.8272827E2,2.5994814E3,2.824985E2,1.4802397E3,6.2143787E1,2.2251108E2,1E1,3.5472366E1,2.7947947E1,2.3387296E2,3.587674E1,2.7657986E2,1.3756122E2,2.5952612E2,2.8436893E2,2.9334262E2,2.4500294E1,2.3193236E2,9.9025345E0,2.2727537E3,3.267277E2,5.8877892E0,2.7661072E2,5.5143787E1,7E0,1.9186497E1,2.4033961E2,1.3118699E3,9.608838E2,3.0887625E2,1.7851461E1,1.3048699E3,7E0,9.548838E2,6E0],"tree_param":{"num_deleted":"0","num_feature":"39","num_nodes":"73","size_leaf_vector":"1"}},{"base_weights":[1.6519227E0,1.9234408E0,1.1904682E0,2.0008771E0,1.2985051E0,1.3951395E0,8.410891E-1,2.03955E0,1.526647E0,1.4606819E0,3.7938926E-2,1.5345569E0,9.475287E-1,1.0124474E0,6.073744E-1,2.0588086E0,5.6687128E-2,1.5783126E0,-4.278322E-3,8.877277E-2,1.2244376E0,1.7719451E0,1.3408364E0,3.669882E-2,1.1864339E0,1.0887445E0,1.6441008E-2,9.683718E-1,2.7074343E-2,2.2177567E0,1.9672786E0,8.729556E-2,5.8540013E-2,1.377098E0,6.5767723E-1,1.8412956E0,5.3963043E-2,1.4151068E0,3.852143E-2,6.0988873E-2,-0E0,1.2078192E0,4.030339E-2,6.5020025E-2,1.8329337E-2,2.2936416E0,9.614637E-2,1.059716E-1,1.8324261E0,7.1506776E-2,5.5568217E-4,5.8275916E-2,8.092114E-3,5.9596323E-3,1.8544885E0,1.7868875E0,1.2773887E0,7.152292E-2,5.125112E-2,1.16245426E-1,1.7069497E0,9.620889E-2,1.5514716E0,1.9287532E-2,9.3580835E-2,7.600496E-3,9.267299E-2,1.3549283E0,3.967308E-2,1.0310953E-2,9.142881E-2,1.5892811E0,1.2809865E-2,1.3753492E0,-7.6838904E-3,4.43093E-2,8.3988525E-2,1.8573375E-2,7.0358686E-2],"categories":[],"categories_nodes":[],"categories_segments":[],"categories_sizes":[],"default_left":[0,0,0,0,0,0,0,0,0,0,0,0,0,0,0,0,0,0,0,0,0,0,0,0,0,0,0,0,0,0,0,0,0,0,0,0,0,0,0,0,0,0,0,0,0,0,0,0,0,0,0,0,0,0,0,0,0,0,0,0,0,0,0,0,0,0,0,0,0,0,0,0,0,0,0,0,0,0,0],"id":16,"left_children":[1,3,5,7,9,11,13,15,17,19,-1,21,23,25,27,29,-1,31,-1,-1,33,35,37,-1,39,41,-1,43,-1,45,47,-1,-1,49,51,53,-1,55,-1,-1,-1,57,-1,-1,-1,59,-1,-1,61,-1,-1,-1,-1,-1,63,65,67,-1,-1,-1,69,-1,71,-1,-1,-1,-1,73,-1,-1,-1,75,-1,77,-1,-1,-1,-1,-1],"loss_changes":[9.8760156E2,2.3329688E2,2.0631104E2,7.164258E1,4.4404663E1,1.1036597E2,4.105664E1,6.3623047E1,3.0476257E1,2.429181E1,0E0,5.6951904E1,1.9167297E1,3.0573853E1,8.65004E0,4.5414062E1,0E0,1.5855591E1,0E0,0E0,1.789795E1,2.311914E1,2.895996E1,0E0,9.067841E0,1.495343E1,0E0,1.0937614E1,0E0,1.9297363E1,4.092383E1,0E0,0E0,1.2637512E1,1.3037794E1,1.0393555E1,0E0,2.7805786E1,0E0,0E0,0E0,1.0438599E1,0E0,0E0,0E0,8.876465E0,0E0,0E0,2.6087402E1,0E0,0E0,0E0,0E0,0E0,1.0356201E1,1.7031921E1,1.4988098E1,0E0,0E0,0E0,9.37439E0,0E0,1.4595886E1,0E0,0E0,0E0,0E0,1.5150269E1,0E0,0E0,0E0,1.6166138E1,0E0,1.1022095E1,0E0,0E0,0E0,0E0,0E0],"parents":[2147483647,0,0,1,1,2,2,3,3,4,4,5,5,6,6,7,7,8,8,9,9,11,11,12,12,13,13,14,14,15,15,17,17,20,20,21,21,22,22,24,24,25,25,27,27,29,29,30,30,33,33,34,34,35,35,37,37,41,41,45,45,48,48,54,54,55,55,56,56,60,60,62,62,67,67,71,71,73,73],"right_children":[2,4,6,8,10,12,14,16,18,20,-1,22,24,26,28,30,-1,32,-1,-1,34,36,38,-1,40,42,-1,44,-1,46,48,-1,-1,50,52,54,-1,56,-1,-1,-1,58,-1,-1,-1,60,-1,-1,62,-1,-1,-1,-1,-1,64,66,68,-1,-1,-1,70,-1,72,-1,-1,-1,-1,74,-1,-1,-1,76,-1,78,-1,-1,-1,-1,-1],"split_conditions":[5.9E0,1E0,1.111602E0,7.9E1,1E0,1E0,1E0,1E0,3.8E0,1E0,3.7938926E-2,8.744411E0,1.2552935E1,1.8816E4,1.11E1,1E0,5.6687128E-2,3.9E0,-4.278322E-3,8.877277E-2,1E0,1.95E0,1.67E0,3.669882E-2,2.2E0,1E0,1.6441008E-2,1.33E0,2.7074343E-2,1E0,2.6E0,8.729556E-2,5.8540013E-2,6.8E0,1E0,1.6852522E1,5.3963043E-2,1E0,3.852143E-2,6.0988873E-2,-0E0,1E0,4.030339E-2,6.5020025E-2,1.8329337E-2,2.9E0,9.614637E-2,1.059716E-1,1.801733E2,7.1506776E-2,5.5568217E-4,5.8275916E-2,8.092114E-3,5.9596323E-3,5.4E-1,7.4E1,2E0,7.152292E-2,5.125112E-2,1.16245426E-1,3.5E0,9.620889E-2,7.8E1,1.9287532E-2,9.3580835E-2,7.600496E-3,9.267299E-2,8.9E0,3.967308E-2,1.0310953E-2,9.142881E-2,2.8E0,1.2809865E-2,1.7981667E1,-7.6838904E-3,4.43093E-2,8.3988525E-2,1.8573375E-2,7.0358686E-2],"split_indices":[29,10,33,27,20,9,20,9,30,6,0,29,34,32,32,11,0,29,0,0,0,30,36,0,36,0,0,33,0,7,29,0,0,30,7,28,0,6,0,0,0,10,0,0,0,36,0,0,32,0,0,0,0,0,36,37,1,0,0,0,36,0,27,0,0,0,0,30,0,0,0,35,0,28,0,0,0,0,0],"split_type":[0,0,0,0,0,0,0,0,0,0,0,0,0,0,0,0,0,0,0,0,0,0,0,0,0,0,0,0,0,0,0,0,0,0,0,0,0,0,0,0,0,0,0,0,0,0,0,0,0,0,0,0,0,0,0,0,0,0,0,0,0,0,0,0,0,0,0,0,0,0,0,0,0,0,0,0,0,0,0],"sum_hessian":[7.9417197E3,4.994481E3,2.9472388E3,4.438499E3,5.5598224E2,1.8529218E3,1.0943169E3,4.0957837E3,3.427151E2,4.2347208E2,1.3251016E2,1.4074518E3,4.4546997E2,6.2507367E2,4.6924323E2,4.0069412E3,8.8842575E1,3.327151E2,1E1,1.7415854E2,2.4931354E2,6.2280304E2,7.8464874E2,2.4172623E2,2.0374374E2,5.599336E2,6.51401E1,6.58546E1,4.0338864E2,1.4432511E3,2.5636902E3,2.2936218E2,1.0335289E2,1.9276668E2,5.6546867E1,5.6179675E2,6.100631E1,6.9008124E2,9.456751E1,1.9874374E2,5E0,3.8688074E2,1.7305284E2,3.9872066E1,2.5982533E1,1.1343383E3,3.0891287E2,1.1872607E3,1.3764293E3,1.8476668E2,8E0,2.5604424E1,3.0942442E1,5E0,5.5679675E2,1.780933E2,5.1198788E2,1.6580977E2,2.2107095E2,1.0697001E3,6.46381E1,1.0260831E3,3.5034613E2,7.633749E0,5.49163E2,7.8128867E0,1.7028043E2,4.363979E2,7.559002E1,5.866396E0,5.8771706E1,3.3921823E2,1.1127898E1,4.313979E2,5E0,4.240126E1,2.9681696E2,1.5E1,4.163979E2],"tree_param":{"num_deleted":"0","num_feature":"39","num_nodes":"79","size_leaf_vector":"1"}},{"base_weights":[1.5715895E0,1.8303187E0,1.1338085E0,1.9280487E0,1.4001926E0,1.0062666E0,1.6438783E0,1.9758948E0,1.5845333E0,1.7132809E0,1.1496177E0,1.1051505E0,5.9530795E-1,1.7540742E0,7.3494816E-1,2.0707939E0,1.8484488E0,1.8103607E0,1.2448838E0,1.4981204E0,1.0025735E-1,7.3534854E-2,9.4348353E-1,1.3283653E0,9.3192196E-1,4.1951902E-2,2.4617244E-2,9.682103E-2,1.4377167E0,7.6417804E-2,2.3210539E-2,1.9816524E0,1.1148407E-1,1.7082592E0,1.9573336E0,1.8667507E0,2.0966884E-2,1.3843565E0,2.0020967E-2,1.5662453E0,3.3427592E-2,5.452929E-2,1.3290216E-2,1.6534784E0,1.205322E0,1.048928E0,6.713983E-1,8.4573925E-1,1.6626111E0,1.8943523E0,1.1652382E-1,8.7169975E-2,4.2950995E-2,9.856195E-2,3.4122575E-2,9.554013E-2,6.322868E-1,1.4906099E0,1.1626441E-2,8.163073E-2,3.5189983E-2,1.7923837E0,5.2140076E-2,1.3188336E0,9.164676E-1,1.1692783E0,3.936364E-2,9.073581E-1,2.5278071E-2,8.410794E-2,2.7120749E-2,8.5980974E-2,6.8738805E-3,1.7924764E0,1.0718765E-1,6.935541E-2,-1.648841E-2,7.949319E-2,2.1759542E-2,9.178387E-2,1.278045E-2,1.3939893E0,3.462046E-2,5.565257E-2,3.006255E-2,6.1584592E-2,3.5594307E-2,1.265114E0,2.7702102E-2,1.8537098E0,1.4079267E0,8.42784E-2,1.1924629E0,7.064151E-2,-0E0,9.357007E-2,3.45609E-2,1.6830994E-2,7.579658E-2,6.3420855E-2,2.6638497E-2],"categories":[],"categories_nodes":[],"categories_segments":[],"categories_sizes":[],"default_left":[0,0,0,0,0,0,0,0,0,0,0,0,0,0,0,0,0,0,0,0,0,0,0,0,0,0,0,0,0,0,0,0,0,0,0,0,0,0,0,0,0,0,0,0,0,0,0,0,0,0,0,0,0,0,0,0,0,0,0,0,0,0,0,0,0,0,0,0,0,0,0,0,0,0,0,0,0,0,0,0,0,0,0,0,0,0,0,0,0,0,0,0,0,0,0,0,0,0,0,0,0],"id":17,"left_children":[1,3,5,7,9,11,13,15,17,19,21,23,25,27,29,31,33,35,37,39,-1,-1,41,43,45,-1,-1,-1,47,-1,-1,49,-1,51,53,55,-1,57,-1,59,-1,-1,-1,61,63,65,67,69,71,73,-1,-1,-1,-1,-1,-1,75,77,-1,-1,-1,79,-1,81,83,85,-1,87,-1,-1,-1,-1,-1,89,-1,-1,-1,-1,-1,-1,-1,91,-1,-1,-1,-1,-1,93,-1,95,97,-1,99,-1,-1,-1,-1,-1,-1,-1,-1],"loss_changes":[8.863301E2,1.9948633E2,1.8509546E2,5.639746E1,6.58645E1,9.272778E1,5.3298706E1,3.1066406E1,3.118811E1,1.5979248E1,2.9382263E1,6.853125E1,9.467957E0,2.0898682E1,1.1073292E1,1.5276367E1,1.2970215E1,1.9466919E1,2.1832214E1,9.434509E0,0E0,0E0,3.0521393E1,2.5986816E1,2.967334E1,0E0,0E0,0E0,2.1161316E1,0E0,0E0,2.6627441E1,0E0,1.4924316E1,9.586914E0,1.0507874E1,0E0,1.9410217E1,0E0,8.098938E0,0E0,0E0,0E0,1.1895325E1,1.5184509E1,1.9391052E1,1.1041153E1,1.118774E1,9.916901E0,1.5189453E1,0E0,0E0,0E0,0E0,0E0,0E0,1.1827402E1,1.3573578E1,0E0,0E0,0E0,8.497864E0,0E0,1.6099548E1,8.083786E0,1.0509277E1,0E0,1.3973633E1,0E0,0E0,0E0,0E0,0E0,9.51416E0,0E0,0E0,0E0,0E0,0E0,0E0,0E0,1.53203125E1,0E0,0E0,0E0,0E0,0E0,1.2210136E1,0E0,8.23291E0,1.0495148E1,0E0,8.494385E0,0E0,0E0,0E0,0E0,0E0,0E0,0E0,0E0],"parents":[2147483647,0,0,1,1,2,2,3,3,4,4,5,5,6,6,7,7,8,8,9,9,10,10,11,11,12,12,13,13,14,14,15,15,16,16,17,17,18,18,19,19,22,22,23,23,24,24,28,28,31,31,33,33,34,34,35,35,37,37,39,39,43,43,44,44,45,45,46,46,47,47,48,48,49,49,56,56,57,57,61,61,63,63,64,64,65,65,67,67,73,73,81,81,87,87,89,89,90,90,92,92],"right_children":[2,4,6,8,10,12,14,16,18,20,22,24,26,28,30,32,34,36,38,40,-1,-1,42,44,46,-1,-1,-1,48,-1,-1,50,-1,52,54,56,-1,58,-1,60,-1,-1,-1,62,64,66,68,70,72,74,-1,-1,-1,-1,-1,-1,76,78,-1,-1,-1,80,-1,82,84,86,-1,88,-1,-1,-1,-1,-1,90,-1,-1,-1,-1,-1,-1,-1,92,-1,-1,-1,-1,-1,94,-1,96,98,-1,100,-1,-1,-1,-1,-1,-1,-1,-1],"split_conditions":[5.9E0,1E0,1E0,1E0,1.01E0,9E0,1E0,6.4E1,6E0,3.903149E0,1E0,1E0,5.69E1,1E0,1.01E0,3.9813213E0,1.2769667E1,1.69E1,2.347419E2,3.8E0,1.0025735E-1,7.3534854E-2,5.8E0,1.7987097E1,1E0,4.1951902E-2,2.4617244E-2,9.682103E-2,3.6006403E0,7.6417804E-2,2.3210539E-2,1E0,1.1148407E-1,8.4E1,1E0,2.9E0,2.0966884E-2,2E0,2.0020967E-2,2.5207397E2,3.3427592E-2,5.452929E-2,1.3290216E-2,1.25E1,1E0,3.47E3,9.9E0,1E0,1.9E0,1E0,1.1652382E-1,8.7169975E-2,4.2950995E-2,9.856195E-2,3.4122575E-2,9.554013E-2,4.3E0,3.59E0,1.1626441E-2,8.163073E-2,3.5189983E-2,3.2589397E1,5.2140076E-2,7.8E1,1.33E0,1.21E0,3.936364E-2,2.0540024E2,2.5278071E-2,8.410794E-2,2.7120749E-2,8.5980974E-2,6.8738805E-3,8E0,1.0718765E-1,6.935541E-2,-1.648841E-2,7.949319E-2,2.1759542E-2,9.178387E-2,1.278045E-2,7.9347086E0,3.462046E-2,5.565257E-2,3.006255E-2,6.1584592E-2,3.5594307E-2,1.52E1,2.7702102E-2,1E0,2.061313E1,8.42784E-2,2.854828E1,7.064151E-2,-0E0,9.357007E-2,3.45609E-2,1.6830994E-2,7.579658E-2,6.3420855E-2,2.6638497E-2],"split_indices":[29,1,13,20,30,38,9,27,38,35,6,1,32,7,33,35,34,34,37,36,0,0,30,32,20,0,0,0,35,0,0,12,0,27,9,36,0,2,0,37,0,0,0,29,10,32,29,6,36,13,0,0,0,0,0,0,29,35,0,0,0,28,0,27,30,33,0,37,0,0,0,0,0,38,0,0,0,0,0,0,0,29,0,0,0,0,0,34,0,19,28,0,28,0,0,0,0,0,0,0,0],"split_type":[0,0,0,0,0,0,0,0,0,0,0,0,0,0,0,0,0,0,0,0,0,0,0,0,0,0,0,0,0,0,0,0,0,0,0,0,0,0,0,0,0,0,0,0,0,0,0,0,0,0,0,0,0,0,0,0,0,0,0,0,0,0,0,0,0,0,0,0,0,0,0,0,0,0,0,0,0,0,0,0,0,0,0,0,0,0,0,0,0,0,0,0,0,0,0,0,0,0,0,0,0],"sum_hessian":[7.885981E3,4.95118E3,2.9348005E3,4.026923E3,9.2425714E2,2.3540754E3,5.807253E2,3.5237124E3,5.0321066E2,4.0391177E2,5.203454E2,1.8928186E3,4.612567E2,5.152929E2,6.543234E1,1.9977794E3,1.525933E3,2.952798E2,2.079309E2,2.4154184E2,1.6236993E2,1.9675491E2,3.2359048E2,8.187292E2,1.0740895E3,1.2985626E2,3.3140045E2,3.183786E2,1.9691434E2,1.3343799E1,5.2088543E1,1.3010708E3,6.967086E2,6.856798E2,8.402532E2,2.8242767E2,1.2852107E1,1.7634303E2,3.1587864E1,2.2045631E2,2.1085531E1,2.6366342E2,5.992704E1,2.1572453E2,6.0300464E2,7.343765E2,3.3971298E2,5.8058315E1,1.3885602E2,1.053212E3,2.4785875E2,6.552819E2,3.039791E1,8.293307E2,1.0922499E1,2.7085635E2,1.1571314E1,1.6011626E2,1.6226776E1,2.019684E2,1.8487904E1,1.7126152E2,4.446302E1,4.2528586E2,1.7771875E2,4.9564264E2,2.387339E2,1.3403265E2,2.0568031E2,1.2154333E1,4.5903984E1,1.329748E2,5.8812275E0,7.6223566E2,2.9097638E2,6.571314E0,5E0,1.4456114E2,1.5555106E1,1.6555775E2,5.703761E0,3.761143E2,4.917157E1,1.043849E2,7.3333855E1,4.3122736E2,6.4415276E1,6.2627007E1,7.1405655E1,6.486992E2,1.1353642E2,1.4566647E2,2.3044783E2,5.593654E1,6.6904664E0,6.369262E2,1.1773007E1,1.2E1,1.0153642E2,2.0364023E2,2.6807604E1],"tree_param":{"num_deleted":"0","num_feature":"39","num_nodes":"101","size_leaf_vector":"1"}},{"base_weights":[1.4991379E0,1.8234212E0,1.1666137E0,1.8686308E0,1.276383E0,1.6170233E0,9.9386626E-1,1.7311703E0,1.9737567E0,8.934917E-1,1.4942597E0,1.7051425E0,9.974745E-1,1.1841376E0,7.326814E-1,1.6479212E0,2.2627778E0,1.1012492E-1,1.9258373E0,6.997975E-2,5.9043646E-1,8.2145564E-2,4.933541E-2,1.882713E0,1.4728061E0,1.2803426E0,2.0492222E-2,1.331263E0,8.040899E-1,9.0354943E-1,4.6812046E-1,1.7007971E0,5.7053722E-2,2.2438677E-2,1.15176335E-1,9.6624866E-2,3.58694E-2,5.6809146E-2,1.7483978E-2,9.583723E-2,5.1052935E-2,1.513931E0,1.5750062E-2,7.478365E-2,5.1600295E-1,1.3838987E0,8.5282046E-1,8.884823E-1,9.23763E-3,1.1013048E0,3.679844E-2,3.2757763E-2,1.7769052E-2,1.7591995E0,6.981767E-2,6.4509846E-2,8.66594E-2,6.412727E-2,-0E0,1.5184249E0,1.1817367E0,4.6545245E-2,-0E0,4.9921453E-2,2.1203743E-2,6.1977793E-2,3.9302394E-2,9.027292E-2,7.084541E-2,1.5594372E0,4.2360965E-2,9.7698987E-1,1.3398783E0,1.1828166E0,1.6427797E0,5.454467E-2,1.1263218E-2,1.8120004E-2,6.937155E-2,6.267647E-2,-0E0,8.363589E-2,3.5370164E-2],"categories":[],"categories_nodes":[],"categories_segments":[],"categories_sizes":[],"default_left":[0,0,0,0,0,0,0,0,0,0,0,0,0,0,0,0,0,0,0,0,0,0,0,0,0,0,0,0,0,0,0,0,0,0,0,0,0,0,0,0,0,0,0,0,0,0,0,0,0,0,0,0,0,0,0,0,0,0,0,0,0,0,0,0,0,0,0,0,0,0,0,0,0,0,0,0,0,0,0,0,0,0,0],"id":18,"left_children":[1,3,5,7,9,11,13,15,17,19,21,23,25,27,29,31,33,-1,35,-1,37,-1,-1,39,41,43,-1,45,47,49,51,53,-1,-1,-1,-1,-1,-1,-1,-1,-1,55,-1,-1,57,59,61,63,-1,65,-1,-1,-1,67,-1,-1,-1,-1,-1,69,71,-1,-1,-1,-1,-1,-1,-1,-1,73,-1,75,77,79,81,-1,-1,-1,-1,-1,-1,-1,-1],"loss_changes":[8.467461E2,9.112012E1,2.989619E2,4.2823242E1,2.1110168E1,5.291797E1,1.3739038E2,6.035547E1,1.0123047E1,1.48237E1,8.861786E0,2.9972412E1,2.067308E1,8.722754E1,5.219171E1,3.1070557E1,1.0883911E1,0E0,8.536133E0,0E0,8.231056E0,0E0,0E0,8.526611E0,1.720642E1,1.1749924E1,0E0,2.4988525E1,2.2833038E1,2.0629578E1,8.619019E0,1.4532471E1,0E0,0E0,0E0,0E0,0E0,0E0,0E0,0E0,0E0,1.2324951E1,0E0,0E0,1.0887603E1,2.2356445E1,8.941292E0,1.846701E1,0E0,1.0262268E1,0E0,0E0,0E0,8.383301E0,0E0,0E0,0E0,0E0,0E0,1.2085693E1,9.080078E0,0E0,0E0,0E0,0E0,0E0,0E0,0E0,0E0,1.1582397E1,0E0,1.5211533E1,8.217651E0,1.0370789E1,8.411987E0,0E0,0E0,0E0,0E0,0E0,0E0,0E0,0E0],"parents":[2147483647,0,0,1,1,2,2,3,3,4,4,5,5,6,6,7,7,8,8,9,9,10,10,11,11,12,12,13,13,14,14,15,15,16,16,18,18,20,20,23,23,24,24,25,25,27,27,28,28,29,29,30,30,31,31,41,41,44,44,45,45,46,46,47,47,49,49,53,53,59,59,60,60,69,69,71,71,72,72,73,73,74,74],"right_children":[2,4,6,8,10,12,14,16,18,20,22,24,26,28,30,32,34,-1,36,-1,38,-1,-1,40,42,44,-1,46,48,50,52,54,-1,-1,-1,-1,-1,-1,-1,-1,-1,56,-1,-1,58,60,62,64,-1,66,-1,-1,-1,68,-1,-1,-1,-1,-1,70,72,-1,-1,-1,-1,-1,-1,-1,-1,74,-1,76,78,80,82,-1,-1,-1,-1,-1,-1,-1,-1],"split_conditions":[4.3E0,1E0,1E0,3.7790565E0,3.4E0,1.27E0,1.43E0,1E0,1.7E0,1.33E1,1.42E0,1E0,9.7E0,1E0,1E0,9E0,2.3E1,1.1012492E-1,1E0,6.997975E-2,1E0,8.2145564E-2,4.933541E-2,2.1E0,3E0,3.75E0,2.0492222E-2,2E0,1.6E0,8.744411E0,1.493E2,1.42E0,5.7053722E-2,2.2438677E-2,1.15176335E-1,9.6624866E-2,3.58694E-2,5.6809146E-2,1.7483978E-2,9.583723E-2,5.1052935E-2,1.2826684E1,1.5750062E-2,7.478365E-2,1.2298153E1,3.063E2,1.23E0,6.4E1,9.23763E-3,1E0,3.679844E-2,3.2757763E-2,1.7769052E-2,3.8E2,6.981767E-2,6.4509846E-2,8.66594E-2,6.412727E-2,-0E0,4.35E0,3.7716098E0,4.6545245E-2,-0E0,4.9921453E-2,2.1203743E-2,6.1977793E-2,3.9302394E-2,9.027292E-2,7.084541E-2,2.0904196E1,4.2360965E-2,2.69E2,1.8974531E1,2.0719788E1,2E0,5.454467E-2,1.1263218E-2,1.8120004E-2,6.937155E-2,6.267647E-2,-0E0,8.363589E-2,3.5370164E-2],"split_indices":[29,10,6,35,35,33,30,12,29,32,36,11,29,9,0,38,31,0,8,0,6,0,0,30,1,35,0,1,36,29,32,36,0,0,0,0,0,0,0,0,0,34,0,0,34,32,33,31,0,20,0,0,0,32,0,0,0,0,0,35,35,0,0,0,0,0,0,0,0,28,0,37,28,28,0,0,0,0,0,0,0,0,0],"split_type":[0,0,0,0,0,0,0,0,0,0,0,0,0,0,0,0,0,0,0,0,0,0,0,0,0,0,0,0,0,0,0,0,0,0,0,0,0,0,0,0,0,0,0,0,0,0,0,0,0,0,0,0,0,0,0,0,0,0,0,0,0,0,0,0,0,0,0,0,0,0,0,0,0,0,0,0,0,0,0,0,0,0,0],"sum_hessian":[7.9176455E3,4.0024316E3,3.9152139E3,3.6907524E3,3.1167905E2,1.0791093E3,2.8361047E3,1.6186671E3,2.0720854E3,1.1839902E2,1.9328003E2,9.402569E2,1.3885236E2,1.6344924E3,1.2016123E3,1.408222E3,2.104451E2,3.3970792E2,1.7323774E3,4.039797E1,7.8001045E1,1.4451144E2,4.8768585E1,5.2244855E2,4.1780838E2,9.099202E1,4.7860332E1,1.1728267E3,4.616657E2,7.2485236E2,4.767599E2,1.2691375E3,1.3908458E2,5.6904993E0,2.047546E2,1.7208676E3,1.1509933E1,2.0328508E1,5.7672535E1,4.9912573E2,2.3322817E1,4.020488E2,1.5759571E1,6.84783E1,2.2513721E1,1.0512936E3,1.2153314E2,4.0411612E2,5.7549595E1,3.2464297E2,4.0020938E2,1.7234575E2,3.0441415E2,1.0540869E3,2.1505057E2,2.0806496E2,1.9398386E2,8.586883E0,1.3926839E1,6.204528E2,4.3084076E2,1.1199621E2,9.536932E0,3.2315683E2,8.0959305E1,2.1939496E2,1.05248E2,9.1848755E2,1.3559932E2,5.8082635E2,3.9626472E1,1.9676596E2,2.3407478E2,1.1292179E2,4.6790457E2,1.6893571E2,2.7830257E1,1.263455E1,2.2144025E2,1.0692179E2,6E0,4.5082947E2,1.70751E1],"tree_param":{"num_deleted":"0","num_feature":"39","num_nodes":"83","size_leaf_vector":"1"}},{"base_weights":[1.4452738E0,1.7401156E0,1.1026976E0,1.790843E0,1.1901946E0,1.565048E0,9.4583654E-1,1.6642301E0,1.9210567E0,1.3248891E0,3.4335162E-2,1.6640126E0,9.1957784E-1,1.0847955E0,6.3862795E-1,1.690846E0,9.943418E-1,1.9690095E0,8.407044E-2,6.881261E-2,2.2940438E-2,2.456726E-2,1.7003903E0,5.2353065E-2,-0E0,1.2080251E0,7.555562E-1,8.5222375E-1,2.4881294E-2,1.753979E0,1.4331214E0,6.370009E-2,1.1152866E-2,9.886291E-2,3.7434526E-2,1.7263405E0,9.815121E-3,1.2634114E0,6.3483065E-1,8.971917E-1,2.7470892E-2,2.2468587E-2,9.8290616E-1,9.218427E-2,7.860368E-2,1.6382908E0,5.805858E-2,1.7734975E0,5.233708E-2,1.4166396E0,1.0821611E0,3.4778982E-2,-2.1991387E-2,1.0077136E0,2.1917624E-2,1.1348366E0,2.6162928E-2,8.547481E-2,1.8081278E-2,1.8390769E0,1.3025268E0,1.4972874E0,5.2474122E-2,1.1577526E0,3.423411E-2,7.532734E-2,8.7640303E-1,1.3021805E0,2.7558863E-2,9.568798E-2,7.215687E-2,3.4506954E-3,7.0220694E-2,7.706386E-2,3.8391892E-2,5.2924633E-2,1.5078936E0,4.8957285E-2,1.1504497E-2,-0E0,6.7991115E-2,8.013508E-2,5.004007E-3],"categories":[],"categories_nodes":[],"categories_segments":[],"categories_sizes":[],"default_left":[0,0,0,0,0,0,0,0,0,0,0,0,0,0,0,0,0,0,0,0,0,0,0,0,0,0,0,0,0,0,0,0,0,0,0,0,0,0,0,0,0,0,0,0,0,0,0,0,0,0,0,0,0,0,0,0,0,0,0,0,0,0,0,0,0,0,0,0,0,0,0,0,0,0,0,0,0,0,0,0,0,0,0],"id":19,"left_children":[1,3,5,7,9,11,13,15,17,19,-1,21,23,25,27,29,31,33,-1,-1,-1,-1,35,-1,-1,37,39,41,-1,43,45,-1,-1,-1,-1,47,-1,49,51,53,-1,-1,55,-1,-1,57,-1,59,-1,61,63,-1,-1,65,-1,67,-1,-1,-1,69,71,73,-1,75,-1,-1,77,79,-1,-1,-1,-1,-1,-1,-1,-1,81,-1,-1,-1,-1,-1,-1],"loss_changes":[7.8210156E2,1.0969629E2,2.5701465E2,5.3203125E1,2.06958E1,5.2624756E1,1.1254004E2,2.8932129E1,1.1246094E1,9.429413E0,0E0,2.9714111E1,1.5874504E1,7.168457E1,2.3427368E1,2.241748E1,1.5462502E1,9.866211E0,0E0,0E0,0E0,0E0,2.7133057E1,0E0,0E0,3.9294556E1,1.2579895E1,1.5199799E1,0E0,1.526709E1,1.4848511E1,0E0,0E0,0E0,0E0,1.7436768E1,0E0,2.8474854E1,8.988483E0,1.2820129E1,0E0,0E0,1.4449005E1,0E0,0E0,1.5981323E1,0E0,1.353833E1,0E0,1.3696777E1,1.3787048E1,0E0,0E0,1.0530106E1,0E0,1.4564087E1,0E0,0E0,0E0,8.963745E0,1.0106812E1,1.2326904E1,0E0,1.0798218E1,0E0,0E0,1.1245224E1,9.486664E0,0E0,0E0,0E0,0E0,0E0,0E0,0E0,0E0,1.1094696E1,0E0,0E0,0E0,0E0,0E0,0E0],"parents":[2147483647,0,0,1,1,2,2,3,3,4,4,5,5,6,6,7,7,8,8,9,9,11,11,12,12,13,13,14,14,15,15,16,16,17,17,22,22,25,25,26,26,27,27,29,29,30,30,35,35,37,37,38,38,39,39,42,42,45,45,47,47,49,49,50,50,53,53,55,55,59,59,60,60,61,61,63,63,66,66,67,67,76,76],"right_children":[2,4,6,8,10,12,14,16,18,20,-1,22,24,26,28,30,32,34,-1,-1,-1,-1,36,-1,-1,38,40,42,-1,44,46,-1,-1,-1,-1,48,-1,50,52,54,-1,-1,56,-1,-1,58,-1,60,-1,62,64,-1,-1,66,-1,68,-1,-1,-1,70,72,74,-1,76,-1,-1,78,80,-1,-1,-1,-1,-1,-1,-1,-1,82,-1,-1,-1,-1,-1,-1],"split_conditions":[4.7E0,1E0,1E0,3.84E0,1E0,1.27E0,1E0,2E0,7.3E1,2.21E2,3.4335162E-2,2.26E0,1.1609E4,1E0,1.3E0,1.4E0,1.31E0,1E0,8.407044E-2,6.881261E-2,2.2940438E-2,2.456726E-2,3E0,5.2353065E-2,-0E0,9E0,6.3033497E1,1E0,2.4881294E-2,1E0,1.0361775E0,6.370009E-2,1.1152866E-2,9.886291E-2,3.7434526E-2,1E0,9.815121E-3,2.4688646E2,3.111111E1,1E0,2.7470892E-2,2.2468587E-2,2E0,9.218427E-2,7.860368E-2,1E0,5.805858E-2,1.67E0,5.233708E-2,1E0,1.4E1,3.4778982E-2,-2.1991387E-2,1E0,2.1917624E-2,1.71E3,2.6162928E-2,8.547481E-2,1.8081278E-2,1E0,9.2E0,1.4439764E2,5.2474122E-2,1E0,3.423411E-2,7.532734E-2,1E0,2.14E0,2.7558863E-2,9.568798E-2,7.215687E-2,3.4506954E-3,7.0220694E-2,7.706386E-2,3.8391892E-2,5.2924633E-2,1.4543068E4,4.8957285E-2,1.1504497E-2,-0E0,6.7991115E-2,8.013508E-2,5.004007E-3],"split_indices":[29,10,6,35,20,33,20,1,27,31,0,35,32,9,30,36,33,8,0,0,0,0,1,0,0,38,31,7,0,7,33,0,0,0,0,9,0,32,28,21,0,0,1,0,0,20,0,36,0,21,29,0,0,7,0,32,0,0,0,10,34,31,0,13,0,0,0,32,0,0,0,0,0,0,0,0,32,0,0,0,0,0,0],"split_type":[0,0,0,0,0,0,0,0,0,0,0,0,0,0,0,0,0,0,0,0,0,0,0,0,0,0,0,0,0,0,0,0,0,0,0,0,0,0,0,0,0,0,0,0,0,0,0,0,0,0,0,0,0,0,0,0,0,0,0,0,0,0,0,0,0,0,0,0,0,0,0,0,0,0,0,0,0,0,0,0,0,0,0],"sum_hessian":[7.807273E3,4.190014E3,3.6172585E3,3.8303523E3,3.5966208E2,9.1017487E2,2.7070837E3,1.9598954E3,1.8704569E3,2.796113E2,8.005077E1,7.850972E2,1.25077675E2,1.8582352E3,8.488485E2,1.8806338E3,7.926158E1,1.5430852E3,3.273717E2,2.617551E2,1.7856194E1,2.5322084E1,7.5977515E2,1.1049672E2,1.4580954E1,1.3460516E3,5.1218353E2,3.307041E2,5.181444E2,1.4981503E3,3.8248358E2,5.626158E1,2.3E1,1.5306787E3,1.2406526E1,7.459448E2,1.3830288E1,1.2236595E3,1.2239207E2,2.9674054E2,2.1544302E2,8.505042E1,2.4565367E2,9.874318E2,5.107184E2,2.1018578E2,1.722978E2,6.931565E2,5.278833E1,6.527115E2,5.709481E2,1.1739207E2,5E0,2.3545418E2,6.128636E1,1.807844E2,6.486929E1,1.976979E2,1.2487878E1,6.0147253E2,9.168397E1,5.278802E2,1.2483131E2,4.743886E2,9.655947E1,4.3112625E1,1.9234155E2,1.3725565E2,4.3528744E1,4.974503E2,1.04022255E2,8E0,8.368397E1,4.9446457E2,3.3415607E1,3.781037E2,9.6284935E1,1.6373573E2,2.8605816E1,6.4252687E0,